-8.679272532463073730e-01 1.380166560411453247e-01 -1.021006822586059570e+00 4.121003746986389160e-01 -1.104416608810424805e+00 7.329188585281372070e-01 7.006564140319824219e-01 -1.065470576286315918e+00 -9.559757113456726074e-01 -1.144491314888000488e+00 1.275398612022399902e+00 -6.542388200759887695e-01 1.078497767448425293e+00 -4.382485747337341309e-01 -1.197970747947692871e+00 1.269577145576477051e+00
1.821223050355911255e-01 -3.775301277637481689e-01 -1.801228672266006470e-01 -6.721927523612976074e-01 4.352289438247680664e-01 -2.984308600425720215e-01 -4.931629002094268799e-01 9.575808644294738770e-01 5.196335911750793457e-01 5.168352723121643066e-01 -4.235510528087615967e-01 -1.820736378431320190e-01 -8.453832864761352539e-01 5.326442122459411621e-01 4.685204923152923584e-01 -5.972377061843872070e-01
9.638240933418273926e-02 -9.685132652521133423e-02 -1.591926999390125275e-02 1.759173721075057983e-01 -6.261750310659408569e-02 -2.453254610300064087e-01 -7.617429643869400024e-02 -1.299068927764892578e-01 -6.031532958149909973e-02 -8.945354819297790527e-02 1.109501197934150696e-01 -1.053650006651878357e-01 -2.712557315826416016e-01 -2.065220773220062256e-01 -6.755392532795667648e-03 -9.551909752190113068e-03
-4.036518633365631104e-01 1.842830330133438110e-01 -8.232337236404418945e-01 1.623116970062255859e+00 -1.139695763587951660e+00 3.795610964298248291e-01 4.036368131637573242e-01 -1.115657329559326172e+00 -1.025981068611145020e+00 -9.864936470985412598e-01 5.065145492553710938e-01 -6.595402956008911133e-01 4.748947024345397949e-01 1.558245858177542686e-03 -8.052803277969360352e-01 1.295295715332031250e+00
1.318999052047729492e+00 -5.970719456672668457e-01 -1.120937392115592957e-01 -1.233619093894958496e+00 5.734718441963195801e-01 -6.422809362411499023e-01 -6.421480178833007812e-01 1.628687739372253418e+00 1.160557270050048828e+00 6.484041213989257812e-01 -3.059137985110282898e-02 6.373220682144165039e-01 -4.268107116222381592e-01 4.434563815593719482e-01 2.521867752075195312e-01 -9.641328454017639160e-01
-1.152077198028564453e+00 1.582880616188049316e-01 -2.609863281250000000e-01 7.346779108047485352e-01 -2.321891188621520996e-01 4.040953814983367920e-01 9.213538169860839844e-01 -6.121992468833923340e-01 -9.853388667106628418e-01 -8.569449782371520996e-01 1.716026663780212402e-01 -9.477030634880065918e-01 3.700503706932067871e-01 -7.480251193046569824e-01 -7.220060825347900391e-01 6.140515208244323730e-01
-7.231122851371765137e-01 6.574271917343139648e-01 -4.279539883136749268e-01 -2.663899064064025879e-01 -1.859938502311706543e-01 3.000314235687255859e-01 4.896598458290100098e-01 -4.634717404842376709e-01 -4.451037943363189697e-01 -7.982369661331176758e-01 8.105676770210266113e-01 -2.706721127033233643e-01 2.012398391962051392e-01 -8.930403590202331543e-01 -3.794568479061126709e-01 1.005702376365661621e+00
-1.637605071067810059e+00 6.209172010421752930e-01 -1.632141590118408203e+00 8.553510904312133789e-01 -9.803388118743896484e-01 6.404539942741394043e-01 6.467149853706359863e-01 -1.457748174667358398e+00 -1.981807947158813477e+00 -8.239716291427612305e-01 1.617754340171813965e+00 -1.522490620613098145e+00 4.168888032436370850e-01 -1.334872007369995117e+00 -4.785780012607574463e-01 8.657501339912414551e-01
1.345669150352478027e+00 -4.468477964401245117e-01 3.771399557590484619e-01 -7.420725822448730469e-01 6.242654323577880859e-01 -4.642977714538574219e-01 -1.018760919570922852e+00 8.651114702224731445e-01 9.700872302055358887e-01 9.328785538673400879e-01 1.605972200632095337e-01 9.256786108016967773e-01 -4.130867123603820801e-01 6.836466789245605469e-01 6.789857745170593262e-01 -8.690462708473205566e-01
-3.819164335727691650e-01 -5.193807184696197510e-03 -1.977014183998107910e+00 1.742611765861511230e+00 -7.080135941505432129e-01 3.138919472694396973e-01 2.226635962724685669e-01 -8.390431404113769531e-01 -1.228640556335449219e+00 -1.093998789787292480e+00 1.171255111694335938e+00 -1.368767857551574707e+00 1.000337362289428711e+00 -4.732853174209594727e-01 -7.619950771331787109e-01 1.634563684463500977e+00
-8.138354420661926270e-01 2.816421352326869965e-02 -1.398872613906860352e+00 3.620306551456451416e-01 -9.033681154251098633e-01 7.348780632019042969e-01 4.061032831668853760e-01 -1.049743413925170898e+00 -1.230051875114440918e+00 -7.027514576911926270e-01 1.414523601531982422e+00 -1.024129867553710938e+00 9.328057765960693359e-01 -3.906506896018981934e-01 -1.006345987319946289e+00 7.490325570106506348e-01
-5.010475516319274902e-01 1.421258449554443359e-01 -5.397506356239318848e-01 3.770623505115509033e-01 -5.068703889846801758e-01 5.258789062500000000e-01 5.857815742492675781e-01 -1.415202617645263672e-01 -1.617455035448074341e-01 -8.188943266868591309e-01 9.314068555831909180e-01 -3.485577702522277832e-01 6.661907434463500977e-01 -1.148324161767959595e-01 -1.045673966407775879e+00 1.074717044830322266e+00
9.121841192245483398e-01 -1.079845547676086426e+00 7.691990137100219727e-01 -1.046965360641479492e+00 9.053957462310791016e-01 -8.710273504257202148e-01 -4.728828072547912598e-01 1.507894754409790039e+00 1.311818003654479980e+00 5.686577558517456055e-01 5.195860862731933594e-01 7.943009138107299805e-01 -1.053947567939758301e+00 3.526816368103027344e-01 5.371176600456237793e-01 -1.023952007293701172e+00
1.416586279869079590e+00 -7.210582494735717773e-01 4.715957045555114746e-01 -8.888039588928222656e-01 5.917446017265319824e-01 -7.068588137626647949e-01 -8.937520384788513184e-01 3.896673321723937988e-01 8.989836573600769043e-01 8.338431119918823242e-01 3.196719884872436523e-01 9.518617987632751465e-01 -3.285614550113677979e-01 5.301474332809448242e-01 5.209777355194091797e-01 -9.133110642433166504e-01
1.041412711143493652e+00 -4.628229737281799316e-01 5.719342827796936035e-01 -4.355054795742034912e-01 1.087813854217529297e+00 -5.187398195266723633e-01 -8.826767206192016602e-01 4.994409084320068359e-01 2.776326537132263184e-01 6.633218526840209961e-01 5.872955918312072754e-01 6.413683891296386719e-01 -1.773866564035415649e-01 3.416918814182281494e-01 3.408545255661010742e-01 -1.036709547042846680e+00
6.373246908187866211e-01 -1.297015070915222168e+00 1.065139293670654297e+00 -1.131125807762145996e+00 8.413529396057128906e-01 -1.108788251876831055e+00 -7.193816900253295898e-01 1.589236974716186523e+00 1.175324201583862305e+00 4.755546748638153076e-01 2.967116534709930420e-01 7.467451691627502441e-01 -1.981099486351013184e+00 5.073191523551940918e-01 3.376059830188751221e-01 -1.522469162940979004e+00
