3.030329942703247070e-03 2.780236303806304932e-02 5.723759531974792480e-04 -2.365332096815109253e-02 -2.875798381865024567e-02 -2.289185672998428345e-02 1.063335686922073364e-03 9.403806179761886597e-03 1.484414786100387573e-01 1.374301463365554810e-01 1.189398989081382751e-01 1.720271855592727661e-01 5.128839612007141113e-02 -2.579508908092975616e-02 -1.294690817594528198e-01 -1.860251426696777344e-01 1.128782406449317932e-01 1.344371289014816284e-01 1.134984195232391357e-01 1.006392091512680054e-01 6.322390586137771606e-02 7.649521529674530029e-02 -1.177800074219703674e-01 -1.386022567749023438e-01 1.583084464073181152e-01 8.974172174930572510e-02 5.450375005602836609e-02 1.053091287612915039e-01 4.748339951038360596e-02 8.055287599563598633e-02 2.734391577541828156e-02 -4.989413172006607056e-02 1.828222572803497314e-01 7.171691954135894775e-02 1.626701466739177704e-02 7.038693875074386597e-02 1.269671469926834106e-01 1.743926405906677246e-01 4.714229702949523926e-02 5.745191872119903564e-02 1.864947229623794556e-01 2.031005769968032837e-01 2.049855887889862061e-01 2.257825732231140137e-01 2.542955279350280762e-01 1.475540101528167725e-01 1.495920270681381226e-01 1.219366565346717834e-01 1.308618634939193726e-01 3.126049935817718506e-01 3.528002202510833740e-01 3.300345540046691895e-01 2.748729884624481201e-01 2.684698402881622314e-01 2.308559417724609375e-02 -3.212880194187164307e-01 -1.111664623022079468e-02 -1.255865953862667084e-02 3.012934327125549316e-02 -1.105973497033119202e-02 4.031620919704437256e-04 -1.294045336544513702e-02 2.264181897044181824e-02 -2.357630804181098938e-02 -1.210597343742847443e-02 2.240248396992683411e-02 2.443039789795875549e-02 -1.669912226498126984e-02 -2.684915438294410706e-02 -2.005867473781108856e-02 -2.927236072719097137e-02 -1.628633588552474976e-02 -1.162842810153961182e-01 -2.930196467787027359e-03 -1.126746237277984619e-01 -1.144018098711967468e-01 2.707164883613586426e-01 -5.421500205993652344e-01 -9.791793227195739746e-01 -8.150935769081115723e-01 -6.521707028150558472e-02 -6.786385178565979004e-02 -1.845273375511169434e-02 1.369507517665624619e-02 -5.609083920717239380e-02 -4.439841210842132568e-02 -8.723020553588867188e-02 -4.380804598331451416e-01 1.217111106961965561e-02 1.200605370104312897e-02 4.693264514207839966e-02 1.418678730260580778e-04 4.038873687386512756e-02 -3.973574563860893250e-02 -3.687557950615882874e-02 -1.647585779428482056e-01 -4.318067431449890137e-02 -2.861836366355419159e-02 2.092079445719718933e-02 -3.214927390217781067e-03 4.596322402358055115e-02 -5.927808210253715515e-02 -1.134816408157348633e-01 -2.041050791740417480e-01 -5.723378807306289673e-02 -1.397446915507316589e-02 1.471575070172548294e-02 -1.280020643025636673e-02 7.018642127513885498e-02 -5.159744620323181152e-02 -1.143486425280570984e-01 -2.287015169858932495e-01 -6.952343881130218506e-02 9.956147521734237671e-03 5.090270191431045532e-02 -2.867796830832958221e-02 -4.780387505888938904e-02 -8.371810615062713623e-02 -2.274231016635894775e-01 -3.061147630214691162e-01 6.479706615209579468e-03 1.004428416490554810e-02 -3.529012203216552734e-02 2.500442415475845337e-02 -2.482984215021133423e-02 2.812885493040084839e-02 -2.603436075150966644e-02 -1.502387784421443939e-02 -2.106055244803428650e-02 -1.230968162417411804e-01 5.834280699491500854e-02 -4.075562953948974609e-02 -5.240065604448318481e-02 -7.619896531105041504e-02 5.222631245851516724e-02 -7.546354085206985474e-02 -1.262728571891784668e-01 -1.852290183305740356e-01 2.397965192794799805e-01 1.085531413555145264e-01 5.925286561250686646e-02 8.100154995918273926e-02 1.764100342988967896e-01 -7.726037502288818359e-02 1.207052078098058701e-02 -7.046889513731002808e-04 3.634260594844818115e-02 1.679068654775619507e-01 1.031377092003822327e-01 6.096908450126647949e-02 8.641122281551361084e-02 1.409761905670166016e-01 1.588476449251174927e-02 6.793422996997833252e-02 4.343720525503158569e-02 1.746779531240463257e-01 1.480548679828643799e-01 1.416620761156082153e-01 2.269421964883804321e-01 1.617185175418853760e-01 1.504433304071426392e-01 1.554990187287330627e-03 1.631647646427154541e-01 1.548211723566055298e-01 2.710097134113311768e-01 1.652103215456008911e-01 2.844330966472625732e-01 4.205645024776458740e-01 1.099665090441703796e-01 4.962703958153724670e-02 1.206419691443443298e-01 1.861872337758541107e-02 2.698572874069213867e-01 3.397126793861389160e-01 3.442516922950744629e-01 2.614457011222839355e-01 -1.214162409305572510e-01 2.685554623603820801e-01 7.111540436744689941e-02 4.504982531070709229e-01 3.465344011783599854e-01 3.334142863750457764e-01 1.779050230979919434e-01 3.942852616310119629e-01 2.194134891033172607e-01 1.049524098634719849e-01 1.506992876529693604e-01 2.884973585605621338e-01 1.493978947401046753e-01 1.747142970561981201e-01 -7.628431916236877441e-02 8.833974599838256836e-02 -2.677235007286071777e-01 2.215066999197006226e-01 -4.085317850112915039e-01 -2.302280217409133911e-01 -4.829072356224060059e-01 -4.809921383857727051e-01 -1.103264018893241882e-01 -3.418350815773010254e-01 -2.100427448749542236e-01 -1.760277748107910156e-01 -2.638714313507080078e-01 -3.714651167392730713e-01 -2.791159451007843018e-01 -2.404449135065078735e-01 1.140598058700561523e+00 -3.706751465797424316e-01 -2.972185052931308746e-02 -1.477573961019515991e-01 -2.522760629653930664e-01 -1.957285553216934204e-01 -4.538077116012573242e-01 -5.100703239440917969e-01 -3.594225049018859863e-01 -1.525459140539169312e-01 -2.337740361690521240e-01 -7.868811488151550293e-02 -2.722392380237579346e-01 -2.203401923179626465e-01 -3.671345710754394531e-01 -2.992761731147766113e-01 -3.206372559070587158e-01 -2.085488736629486084e-01 -4.177489131689071655e-02 -1.318461894989013672e-01 -3.169132471084594727e-01 -2.494421899318695068e-01 -2.740748822689056396e-01 -2.398512512445449829e-01 -3.604152500629425049e-01 -3.081978857517242432e-01 -1.556891500949859619e-01 -2.228177189826965332e-01 -2.437540143728256226e-02 -3.762610554695129395e-01 -1.961152553558349609e-01 -1.942475885152816772e-01 -1.777787655591964722e-01 -2.288185656070709229e-01 -3.338412195444107056e-02 -1.338431686162948608e-01 -1.101900562644004822e-01 -1.749988049268722534e-01 -1.801302731037139893e-01 -1.043842285871505737e-01 -6.208923831582069397e-02 -3.418150842189788818e-01 -2.231059521436691284e-01 2.625763230025768280e-02 -1.117944344878196716e-01 -3.604451566934585571e-02 -1.522589176893234253e-01 -1.084312647581100464e-01 -4.179392457008361816e-01 -2.140760570764541626e-01 3.231908679008483887e-01 4.968729987740516663e-02 3.812851756811141968e-02 1.001087054610252380e-01 3.704217448830604553e-02 5.783750209957361221e-03 -9.271024912595748901e-02 -4.964824914932250977e-01 -3.422117233276367188e-02 1.641329079866409302e-01 7.065067440271377563e-02 1.281586885452270508e-01 6.473451852798461914e-02 9.085995145142078400e-03 -1.002256423234939575e-01 3.512551262974739075e-02 -6.039575859904289246e-02 1.006899178028106689e-01 1.862376630306243896e-01 1.506459414958953857e-01 1.656300723552703857e-01 5.230989307165145874e-02 7.649997621774673462e-02 9.154431521892547607e-02 -6.526592373847961426e-02 8.303724229335784912e-02 1.074890494346618652e-01 2.850319743156433105e-01 5.167802050709724426e-02 7.042343914508819580e-02 2.222822904586791992e-01 1.949639171361923218e-01 1.536846905946731567e-01 -1.854922063648700714e-02 2.651519179344177246e-01 1.271564066410064697e-01 2.518845200538635254e-01 2.406177222728729248e-01 2.221372574567794800e-01 1.556716114282608032e-01 9.340379387140274048e-02 2.622348368167877197e-01 7.650623470544815063e-02 2.430575191974639893e-01 2.281844019889831543e-01 4.235838055610656738e-01 3.533942699432373047e-01 7.018427848815917969e-01 2.967077493667602539e-01 1.162551492452621460e-01 2.609423100948333740e-01 5.443127751350402832e-01 1.000723615288734436e-01 1.140385717153549194e-01 1.542513966560363770e-01 3.856756687164306641e-01 9.293984621763229370e-02 2.113870680332183838e-01 3.537092208862304688e-01 2.226056605577468872e-01 1.922877430915832520e-01 5.566634982824325562e-02 2.391193956136703491e-01 2.048677057027816772e-01 -5.783758759498596191e-01 -5.236566066741943359e-01 -3.966992497444152832e-01 -3.149498999118804932e-01 -6.432521343231201172e-01 -5.596452951431274414e-01 -4.015873670578002930e-01 -3.387428820133209229e-01 -3.879779949784278870e-02 -1.795149743556976318e-01 -5.758098140358924866e-02 -2.126706689596176147e-01 -8.506552129983901978e-02 -3.159384727478027344e-01 -2.565099298954010010e-01 -3.051566779613494873e-01 -3.319988846778869629e-01 -1.489213705062866211e-01 -3.648866713047027588e-01 -6.934136897325515747e-02 -4.637079536914825439e-01 -1.871688961982727051e-01 -3.807840645313262939e-01 -1.998758763074874878e-01 6.275238841772079468e-02 -1.744149327278137207e-01 -1.832623481750488281e-01 -1.983585804700851440e-01 -2.054646760225296021e-01 -3.302202820777893066e-01 -3.857284039258956909e-02 -3.554014861583709717e-01 -1.689689904451370239e-01 -1.697355061769485474e-01 -2.160533219575881958e-01 -3.364934921264648438e-01 -3.017556071281433105e-01 -2.728109955787658691e-01 -3.770659565925598145e-01 -3.368287682533264160e-01 -3.955801203846931458e-02 -8.268007636070251465e-02 -1.446888744831085205e-01 -1.807367354631423950e-01 -1.025857403874397278e-01 -2.844355106353759766e-01 -1.349156498908996582e-01 -4.291705489158630371e-01 -1.949917711317539215e-02 -3.415708243846893311e-02 -1.218011081218719482e-01 -7.162451744079589844e-02 -2.420922815799713135e-01 -1.476563513278961182e-01 -2.761779725551605225e-01 -2.688048481941223145e-01 -1.893855072557926178e-02 -1.781131029129028320e-01 -7.188095897436141968e-02 -2.548758089542388916e-01 -3.250115215778350830e-01 -3.072513341903686523e-01 -1.103452593088150024e-01 -2.529376149177551270e-01 5.168113484978675842e-02 1.481757909059524536e-01 1.810194253921508789e-01 1.441008597612380981e-01 1.003268212080001831e-01 1.665600985288619995e-01 3.963084816932678223e-01 2.688776254653930664e-01 8.475667238235473633e-02 2.504653632640838623e-01 2.299952507019042969e-01 1.188348382711410522e-01 2.011421471834182739e-01 3.137807250022888184e-01 3.990908861160278320e-01 4.532184302806854248e-01 2.888808250427246094e-01 2.254295349121093750e-02 2.666662037372589111e-01 2.048275917768478394e-01 2.571727037429809570e-01 2.914138734340667725e-01 2.918078303337097168e-01 4.467114806175231934e-01 2.377967834472656250e-01 5.527807027101516724e-02 2.800253927707672119e-01 2.464541047811508179e-01 1.823788583278656006e-01 1.401735097169876099e-01 2.745719552040100098e-01 3.179402053356170654e-01 2.134252041578292847e-01 1.039603799581527710e-01 3.040756285190582275e-01 3.425843417644500732e-01 2.890144586563110352e-01 2.968294620513916016e-01 4.285478591918945312e-01 3.852322995662689209e-01 3.147467672824859619e-01 2.468941509723663330e-01 3.404000997543334961e-01 3.995500206947326660e-01 5.536825060844421387e-01 3.875183165073394775e-01 3.258219361305236816e-01 2.594819366931915283e-01 3.770380616188049316e-01 3.175212442874908447e-01 3.730332851409912109e-01 4.227866828441619873e-01 4.630699157714843750e-01 4.245965182781219482e-01 3.418489098548889160e-01 3.880335390567779541e-01 2.430777847766876221e-01 2.405992150306701660e-01 2.480981945991516113e-01 2.808898389339447021e-01 4.847385287284851074e-01 3.376829624176025391e-01 3.897765576839447021e-01 3.351123332977294922e-01 -3.387685120105743408e-01 -4.175476431846618652e-01 -3.890378773212432861e-01 -3.565734326839447021e-01 -5.268873572349548340e-01 -6.201767325401306152e-01 -3.187536597251892090e-01 -4.062936007976531982e-01 -2.075085639953613281e-01 -3.271347582340240479e-01 -2.146567553281784058e-01 -3.655618131160736084e-01 -4.082035720348358154e-01 -4.856020212173461914e-01 -4.539052844047546387e-01 -5.326539874076843262e-01 -3.467640876770019531e-01 -3.999481797218322754e-01 -3.327878117561340332e-01 -3.482168316841125488e-01 -4.900531172752380371e-01 -4.939589202404022217e-01 -4.678513705730438232e-01 -6.503304839134216309e-01 -3.508962690830230713e-01 -3.483874797821044922e-01 -2.992303371429443359e-01 -2.732538580894470215e-01 -3.778047859668731689e-01 -4.218381941318511963e-01 -4.514457285404205322e-01 -6.630399823188781738e-01 -3.317419290542602539e-01 -4.041140675544738770e-01 -3.072655797004699707e-01 -4.417403638362884521e-01 -2.988645732402801514e-01 -6.844958066940307617e-01 -2.395242005586624146e-01 -5.415461063385009766e-01 -2.910316586494445801e-01 -2.675394117832183838e-01 -4.507590234279632568e-01 -4.697313904762268066e-01 -3.497771024703979492e-01 -3.512647151947021484e-01 -3.235196173191070557e-01 -4.824607968330383301e-01 -3.883527219295501709e-01 -2.628104686737060547e-01 -2.084178030490875244e-01 -2.363628596067428589e-01 -2.084999680519104004e-01 -3.648771643638610840e-01 -5.524247884750366211e-01 -5.990738868713378906e-01 -1.975477635860443115e-01 -2.500812113285064697e-01 -2.103179395198822021e-01 -2.255031913518905640e-01 -2.004703134298324585e-01 -3.194144368171691895e-01 -5.357710123062133789e-01 -5.388469696044921875e-01 3.996258080005645752e-01 3.097352087497711182e-01 3.821699619293212891e-01 3.293192684650421143e-01 3.973660469055175781e-01 2.242008745670318604e-01 6.441414356231689453e-01 6.574458479881286621e-01 3.436254262924194336e-01 3.281254470348358154e-01 3.106554150581359863e-01 5.846996903419494629e-01 4.360341727733612061e-01 3.828577101230621338e-01 5.176994204521179199e-01 7.452821731567382812e-01 3.825696408748626709e-01 2.901655435562133789e-01 5.296796560287475586e-01 3.630080819129943848e-01 4.868420064449310303e-01 4.344923198223114014e-01 5.340343117713928223e-01 7.367234230041503906e-01 1.923489868640899658e-01 3.408404588699340820e-01 3.628110885620117188e-01 5.432745814323425293e-01 4.841732978820800781e-01 6.161805987358093262e-01 6.868308186531066895e-01 7.675522565841674805e-01 4.012103080749511719e-01 4.067403376102447510e-01 4.840241372585296631e-01 5.044810771942138672e-01 6.194906234741210938e-01 6.100562810897827148e-01 7.630259990692138672e-01 7.225608229637145996e-01 3.272315561771392822e-01 6.262321472167968750e-01 4.645761847496032715e-01 5.819931626319885254e-01 7.011364698410034180e-01 8.510754108428955078e-01 8.912338018417358398e-01 9.270743727684020996e-01 5.198361873626708984e-01 4.795124232769012451e-01 6.675645112991333008e-01 9.213945865631103516e-01 7.473616600036621094e-01 7.482813596725463867e-01 6.163451671600341797e-01 8.030052185058593750e-01 6.404785513877868652e-01 6.243248581886291504e-01 6.844812631607055664e-01 6.192349791526794434e-01 8.992333412170410156e-01 4.010858535766601562e-01 5.404832959175109863e-01 4.782644212245941162e-01 -8.718477487564086914e-01 -9.330164790153503418e-01 -8.588048219680786133e-01 -1.171109676361083984e+00 -1.089467883110046387e+00 -1.154784560203552246e+00 -1.203651666641235352e+00 -1.075780868530273438e+00 -8.374963402748107910e-01 -7.556574344635009766e-01 -8.066604137420654297e-01 -1.035139322280883789e+00 -1.254437685012817383e+00 -9.728145599365234375e-01 -1.093113660812377930e+00 -1.055589199066162109e+00 -7.257518172264099121e-01 -9.450685977935791016e-01 -8.183534145355224609e-01 -9.607737660408020020e-01 -9.941664338111877441e-01 -1.007889509201049805e+00 -9.898481965065002441e-01 -9.706096649169921875e-01 -7.188681960105895996e-01 -8.545522093772888184e-01 -8.514989614486694336e-01 -9.476132988929748535e-01 -1.051190137863159180e+00 -1.179745674133300781e+00 -1.065011620521545410e+00 -7.246636152267456055e-01 -5.851131081581115723e-01 -1.048367261886596680e+00 -5.877078771591186523e-01 -7.971193194389343262e-01 -8.553406000137329102e-01 -9.180602431297302246e-01 -7.881086468696594238e-01 -7.115569114685058594e-01 -7.552513480186462402e-01 -5.812746286392211914e-01 -7.744514346122741699e-01 -6.400102376937866211e-01 -7.472835183143615723e-01 -6.588867306709289551e-01 -6.244660615921020508e-01 -8.144149184226989746e-01 -5.049801468849182129e-01 -6.833261251449584961e-01 -5.951254963874816895e-01 -6.569243073463439941e-01 -6.445185542106628418e-01 -6.030118465423583984e-01 -8.094228506088256836e-01 -5.741475820541381836e-01 -4.039632380008697510e-01 -5.051884055137634277e-01 -5.118833184242248535e-01 -5.909935832023620605e-01 -6.001148819923400879e-01 -5.527950525283813477e-01 -9.211911559104919434e-01 -7.514252662658691406e-01 2.888001687824726105e-02 7.360540796071290970e-03 7.513023912906646729e-02 5.432314425706863403e-02 3.877750132232904434e-03 6.372889131307601929e-02 -1.129362508654594421e-01 -4.728590324521064758e-02 1.574523150920867920e-01 1.672900468111038208e-01 1.181692928075790405e-01 1.641230881214141846e-01 8.968997001647949219e-02 3.615342546254396439e-03 -5.347305908799171448e-02 -1.033541932702064514e-02 1.054020002484321594e-01 1.881886422634124756e-01 2.237175405025482178e-01 1.406525522470474243e-01 1.797066926956176758e-01 1.136029362678527832e-01 4.639139026403427124e-02 -3.546477481722831726e-02 2.322544008493423462e-01 2.695618867874145508e-01 2.537199854850769043e-01 1.735181808471679688e-01 7.379194349050521851e-02 2.914454601705074310e-02 5.265242606401443481e-02 4.300991073250770569e-03 4.248538613319396973e-01 3.227021992206573486e-01 3.202203512191772461e-01 2.009890824556350708e-01 -4.834674671292304993e-02 5.301129072904586792e-02 -3.840278461575508118e-02 -3.954868391156196594e-02 3.113842010498046875e-01 2.227131873369216919e-01 2.179955095052719116e-01 7.345449179410934448e-02 1.654583066701889038e-01 -1.022605895996093750e-01 -1.867229193449020386e-01 -9.504449367523193359e-02 2.652115821838378906e-01 2.720044255256652832e-01 1.753836423158645630e-01 -8.423365652561187744e-02 -1.183583363890647888e-01 4.121271520853042603e-02 1.653908938169479370e-02 -2.179237306118011475e-01 2.538890838623046875e-01 -1.434992849826812744e-01 -1.437473017722368240e-02 2.995155751705169678e-01 -2.728769779205322266e-01 1.504092756658792496e-02 -2.216728031635284424e-02 8.423508703708648682e-02 1.472269147634506226e-01 3.980498313903808594e-01 2.456968128681182861e-01 2.830876111984252930e-01 -3.595819771289825439e-01 -2.148804962635040283e-01 5.453725531697273254e-02 -2.130949646234512329e-01 -2.502813041210174561e-01 2.300857193768024445e-02 -5.048679709434509277e-01 -4.919063150882720947e-01 1.354207992553710938e-01 -6.728862971067428589e-02 -4.194954037666320801e-02 -7.042469829320907593e-02 -1.075116544961929321e-01 -4.673337971325963736e-04 -7.759372144937515259e-02 4.143533110618591309e-02 -1.540191322565078735e-01 -9.366025775671005249e-02 1.001030355691909790e-01 1.180943567305803299e-02 3.787190318107604980e-01 7.911322754807770252e-04 8.094318956136703491e-02 -4.765985533595085144e-02 -9.939928352832794189e-02 8.225406520068645477e-03 -4.148051887750625610e-02 1.963712507858872414e-03 5.026428401470184326e-02 6.079895421862602234e-03 4.653977602720260620e-02 -2.692224085330963135e-02 2.396012656390666962e-02 -1.982160359621047974e-01 -7.997579127550125122e-02 3.552417829632759094e-02 1.945271641016006470e-01 -4.288971424102783203e-02 -5.028596892952919006e-02 6.670597195625305176e-02 -7.103650714270770550e-04 8.282672613859176636e-03 3.573914989829063416e-02 2.059794515371322632e-01 7.378625124692916870e-02 -4.906145110726356506e-02 -1.321436837315559387e-02 7.893176376819610596e-02 5.019353330135345459e-02 1.590038090944290161e-01 2.210346460342407227e-01 3.488243818283081055e-01 6.192847713828086853e-02 8.748078718781471252e-03 9.311166405677795410e-02 6.922165304422378540e-02 1.848222464323043823e-01 2.153836935758590698e-01 2.786945104598999023e-01 3.198115825653076172e-01
-1.227958127856254578e-02 -1.769736222922801971e-02 -1.213797740638256073e-02 1.984701678156852722e-02 6.941445171833038330e-03 7.464919239282608032e-03 3.026418387889862061e-02 1.281342282891273499e-02 1.304810941219329834e-01 -5.367322266101837158e-02 7.333266735076904297e-02 -1.010986790060997009e-01 -1.494345068931579590e-01 -5.637485906481742859e-02 2.713302522897720337e-02 -1.697299927473068237e-01 9.575223922729492188e-02 -4.907524958252906799e-02 1.248383242636919022e-02 -1.030102074146270752e-01 -1.152721643447875977e-01 1.306185573339462280e-01 -1.483844779431819916e-02 -1.534909307956695557e-01 1.062460094690322876e-01 -2.046429216861724854e-01 4.701689630746841431e-02 -1.498811095952987671e-01 9.911667555570602417e-02 -5.975017324090003967e-02 2.530357539653778076e-01 -5.668257549405097961e-02 -7.960525155067443848e-02 -2.250637710094451904e-01 -1.206621378660202026e-01 -1.014681681990623474e-01 -1.286445707082748413e-01 1.068413555622100830e-01 -9.711434692144393921e-02 1.409823447465896606e-01 -2.964952215552330017e-02 -3.788756430149078369e-01 -2.333473414182662964e-01 -4.204533994197845459e-01 -1.684226095676422119e-01 -2.203330397605895996e-01 -1.516382843255996704e-01 -1.502226442098617554e-01 -2.282171696424484253e-01 -1.715485900640487671e-01 -1.066862225532531738e+00 -2.844293415546417236e-01 -2.934535443782806396e-01 7.846375554800033569e-02 1.545452140271663666e-02 1.557454019784927368e-01 2.116360515356063843e-02 -1.853997260332107544e-02 2.979984879493713379e-02 -2.970357239246368408e-02 2.212148532271385193e-02 -3.089087456464767456e-02 3.555557131767272949e-02 1.762784272432327271e-02 2.304330468177795410e-03 -3.360221907496452332e-02 -2.817690372467041016e-02 -7.229104638099670410e-03 -1.658456213772296906e-02 -1.910035312175750732e-02 2.300146967172622681e-02 -7.654316723346710205e-04 -3.712961375713348389e-01 -5.709781646728515625e-01 1.656817495822906494e-01 5.740554332733154297e-01 1.124350547790527344e+00 8.268579244613647461e-01 -1.048343405127525330e-01 7.306997776031494141e-01 -2.239099293947219849e-01 -1.675784587860107422e-01 1.033415645360946655e-01 6.332229822874069214e-02 -5.072380974888801575e-02 2.566889487206935883e-02 2.829893529415130615e-01 5.098943114280700684e-01 -1.067116409540176392e-01 -3.473801165819168091e-02 4.994668997824192047e-03 9.535302221775054932e-02 2.492332011461257935e-01 1.777953058481216431e-01 4.044497609138488770e-01 1.875209510326385498e-01 -8.131216466426849365e-02 -5.969317257404327393e-02 -3.746505454182624817e-02 1.236327290534973145e-01 1.286584734916687012e-01 1.817508041858673096e-01 2.652815729379653931e-02 -8.377192169427871704e-02 -1.310225874185562134e-01 -2.994788251817226410e-02 1.095581799745559692e-01 1.078616678714752197e-01 2.495715320110321045e-01 1.433330923318862915e-01 2.760898470878601074e-01 1.748277097940444946e-01 -1.092643514275550842e-01 1.017887070775032043e-01 -3.185106813907623291e-02 2.086111716926097870e-02 1.680890917778015137e-01 1.727212220430374146e-01 2.533065080642700195e-01 7.089114934206008911e-02 -2.586222067475318909e-02 6.357833743095397949e-03 2.954416722059249878e-02 3.263939172029495239e-02 2.637051045894622803e-02 2.852100878953933716e-02 2.938429266214370728e-02 3.780819475650787354e-03 -2.102459520101547241e-01 -2.303364276885986328e-01 6.055257283151149750e-03 6.278461217880249023e-02 9.684828668832778931e-02 -2.069026678800582886e-01 -1.017590835690498352e-01 5.053397268056869507e-03 1.157604604959487915e-01 -2.187697440385818481e-01 -1.496208012104034424e-01 -1.781137585639953613e-01 -1.153771355748176575e-01 2.826731204986572266e-01 1.388312876224517822e-01 8.293467760086059570e-02 -1.264152675867080688e-02 -1.739236265420913696e-01 -1.426654011011123657e-01 -1.373853087425231934e-01 -2.254732400178909302e-01 -2.996945381164550781e-01 -1.110155060887336731e-01 -1.413184124976396561e-02 -3.155633509159088135e-01 -2.424113452434539795e-01 -3.859297633171081543e-01 -1.568183898925781250e-01 -1.869473904371261597e-01 -1.716453582048416138e-01 -3.125070035457611084e-01 -1.222617179155349731e-01 -3.423390388488769531e-01 -3.472010195255279541e-01 -3.501204252243041992e-01 -5.557610988616943359e-01 -3.755506575107574463e-01 -5.088030099868774414e-01 -4.445925354957580566e-01 -7.085275650024414062e-02 -2.249777764081954956e-01 -2.351546883583068848e-01 -4.685968160629272461e-01 -5.168495178222656250e-01 -4.817783236503601074e-01 -2.975550293922424316e-01 -4.527393579483032227e-01 -7.690522074699401855e-01 -2.656828165054321289e-01 -3.671366572380065918e-01 -3.225862681865692139e-01 -1.841985881328582764e-01 -2.826380729675292969e-01 -7.149073481559753418e-01 -1.115041598677635193e-01 -2.108654975891113281e-01 4.110317095182836056e-04 -3.912925422191619873e-01 -5.328589081764221191e-01 -2.527818679809570312e-01 -4.482770264148712158e-01 -9.438769519329071045e-02 2.067503631114959717e-01 -5.050942301750183105e-01 7.992519438266754150e-02 9.260969758033752441e-01 -7.665412425994873047e-01 -8.441259711980819702e-02 5.650541186332702637e-01 -2.328539639711380005e-01 5.231713652610778809e-01 6.957908719778060913e-02 5.079901814460754395e-01 4.774621427059173584e-01 4.998335614800453186e-02 4.685828983783721924e-01 -1.962248235940933228e-02 7.351867109537124634e-02 7.457574009895324707e-01 -4.007368385791778564e-01 1.092840824276208878e-02 4.092000126838684082e-01 6.829993128776550293e-01 4.473371207714080811e-01 2.604607343673706055e-01 -3.063108325004577637e-01 1.514210999011993408e-01 6.663027405738830566e-02 2.610915005207061768e-01 1.760504096746444702e-01 1.720971912145614624e-01 3.398750424385070801e-01 4.929994940757751465e-01 9.582000970840454102e-01 2.534630000591278076e-01 3.391224145889282227e-01 9.787123650312423706e-02 2.783270478248596191e-01 3.354232609272003174e-01 1.568297594785690308e-01 3.266232609748840332e-01 4.102682173252105713e-01 3.616491556167602539e-01 2.230754345655441284e-01 5.840064957737922668e-02 1.546010524034500122e-01 3.083427250385284424e-01 6.223821043968200684e-01 4.181773662567138672e-01 3.429934382438659668e-01 1.874128282070159912e-01 1.542340219020843506e-01 -3.736756145954132080e-01 1.161404922604560852e-01 -1.862365566194057465e-02 2.862592637538909912e-01 1.607864052057266235e-01 4.171156287193298340e-01 2.139686644077301025e-01 2.910492718219757080e-01 -8.413702249526977539e-01 2.475872188806533813e-01 -5.475635081529617310e-02 -3.992855921387672424e-02 1.491123288869857788e-01 3.043161034584045410e-01 1.750742048025131226e-01 1.656437665224075317e-01 -3.183434903621673584e-01 -2.216250449419021606e-01 -5.991615653038024902e-01 2.347910106182098389e-01 -6.100406646728515625e-01 2.440574578940868378e-02 -2.228356152772903442e-01 -9.353771060705184937e-02 -1.491477042436599731e-01 -7.084215879440307617e-01 1.114159077405929565e-01 -5.601872801780700684e-01 -1.452936790883541107e-03 -2.836811244487762451e-01 -1.721354722976684570e-01 -1.205183491110801697e-01 -4.997509121894836426e-01 -1.270152777433395386e-01 -6.398211717605590820e-01 -4.680647701025009155e-02 -5.518358349800109863e-01 -4.070070758461952209e-02 -4.361599683761596680e-01 -1.027871444821357727e-01 -1.490725427865982056e-01 -7.538051605224609375e-01 -1.990209519863128662e-01 -7.271466255187988281e-01 1.298701483756303787e-02 -6.596351265907287598e-01 -1.272007972002029419e-01 -3.070674836635589600e-01 -4.997630715370178223e-01 -2.564388513565063477e-01 -5.369326472282409668e-01 -5.099367722868919373e-02 -5.932338237762451172e-01 3.781629726290702820e-02 -5.948300957679748535e-01 3.183950856328010559e-02 -1.116368845105171204e-01 -6.581752896308898926e-01 -3.753809258341789246e-02 -7.340891361236572266e-01 -1.239460986107587814e-02 -5.544016957283020020e-01 3.956160321831703186e-02 -3.998026549816131592e-01 -5.344001054763793945e-01 2.432563900947570801e-01 -8.435186147689819336e-01 -3.574653714895248413e-02 -6.076582670211791992e-01 -4.893824085593223572e-02 -7.670614123344421387e-01 -1.332438588142395020e-01 4.470058903098106384e-02 -5.915892720222473145e-01 2.859653830528259277e-01 3.912856429815292358e-02 1.517638713121414185e-01 -2.750404477119445801e-01 2.260762006044387817e-01 -5.929863452911376953e-01 7.472055149264633656e-04 -8.887008428573608398e-01 1.139490902423858643e-01 -4.042599499225616455e-01 -1.238094866275787354e-01 -1.122642084956169128e-01 -1.584560871124267578e-01 -8.166257739067077637e-01 -3.608317673206329346e-01 3.766733705997467041e-01 1.213710904121398926e-01 -2.690406329929828644e-02 5.139857530593872070e-02 1.752879768610000610e-01 2.293486148118972778e-01 -2.884773313999176025e-01 -5.015036463737487793e-01 -1.614814102649688721e-01 3.489978611469268799e-01 -5.032417923212051392e-02 1.085787340998649597e-01 1.332295387983322144e-01 1.053470298647880554e-01 -1.239974141120910645e+00 7.127963304519653320e-01 1.198490709066390991e-01 2.179148793220520020e-01 3.349202871322631836e-01 4.618740379810333252e-01 1.826274991035461426e-01 2.957909703254699707e-01 1.968866959214210510e-02 9.591110050678253174e-02 2.481814026832580566e-01 2.450627684593200684e-01 2.789578437805175781e-01 2.501451373100280762e-01 3.410997986793518066e-01 -1.338786724954843521e-02 4.135953485965728760e-01 3.345979154109954834e-01 4.795671701431274414e-01 1.315768659114837646e-01 4.094651043415069580e-01 2.531583309173583984e-01 2.202335447072982788e-01 4.372186064720153809e-01 2.388551086187362671e-01 2.077967673540115356e-01 2.096426934003829956e-01 2.680840790271759033e-01 3.260003924369812012e-01 2.580972611904144287e-01 3.643198609352111816e-01 5.003210306167602539e-01 2.442185580730438232e-01 5.591941997408866882e-02 1.200513616204261780e-01 1.978348344564437866e-01 1.522812098264694214e-01 4.399671256542205811e-01 2.251059114933013916e-01 -4.288416728377342224e-02 1.669168919324874878e-01 -1.150077283382415771e-01 -1.212170720100402832e-01 -8.856981247663497925e-02 -2.251023054122924805e-01 -1.357129663228988647e-01 -1.143588945269584656e-01 -1.222892180085182190e-01 -2.450983822345733643e-01 2.239978462457656860e-01 3.825947642326354980e-01 1.156647801399230957e-01 8.084172010421752930e-02 4.780654609203338623e-02 1.460791677236557007e-01 1.397023908793926239e-02 -1.114263292402029037e-02 6.625980138778686523e-01 -2.651336193084716797e-01 2.575853168964385986e-01 -3.607917344197630882e-03 1.154996827244758606e-01 -1.868784241378307343e-02 -3.545712307095527649e-02 -1.875449419021606445e-01 5.676270723342895508e-01 1.376387476921081543e-01 4.109044373035430908e-01 8.407695591449737549e-02 7.254293560981750488e-02 -1.409805417060852051e-01 -7.904055714607238770e-02 -2.071595042943954468e-01 4.116617739200592041e-01 -3.216982185840606689e-01 -7.275623083114624023e-02 5.552034080028533936e-02 1.590037047863006592e-01 -2.447961121797561646e-01 -1.440275013446807861e-01 -3.572150468826293945e-01 -2.657714188098907471e-01 -6.522811204195022583e-02 -1.593091189861297607e-01 -2.135300338268280029e-01 1.165849249809980392e-02 -4.045740067958831787e-01 -3.757389485836029053e-01 3.255139663815498352e-02 -4.208573698997497559e-01 -1.333556473255157471e-01 -4.792526662349700928e-01 -3.530932664871215820e-01 -3.683355152606964111e-01 -1.473781019449234009e-01 -3.123640716075897217e-01 -4.913376271724700928e-01 1.334751248359680176e-01 -8.325773477554321289e-02 -2.245947569608688354e-01 5.047886073589324951e-02 7.960058003664016724e-02 1.226061135530471802e-01 -1.991893351078033447e-01 -1.366698741912841797e+00 3.362066745758056641e-01 4.026461839675903320e-01 4.085225760936737061e-01 2.428986430168151855e-01 1.848173886537551880e-01 4.233771264553070068e-01 3.501060903072357178e-01 1.513318121433258057e-01 4.003706872463226318e-01 7.102947682142257690e-02 1.471861898899078369e-01 2.009764686226844788e-02 -6.013893708586692810e-02 2.760787308216094971e-01 1.309123486280441284e-01 2.565859258174896240e-01 3.796179294586181641e-01 1.018927767872810364e-01 1.956626474857330322e-01 5.568072795867919922e-01 3.650487959384918213e-01 2.612690329551696777e-01 3.281488716602325439e-01 3.002961277961730957e-01 4.063794016838073730e-01 3.917612135410308838e-01 1.793379187583923340e-01 3.473872840404510498e-01 2.493419796228408813e-01 5.944677069783210754e-02 6.085726618766784668e-01 6.109569072723388672e-01 3.269609808921813965e-01 -1.427507251501083374e-01 1.429354250431060791e-01 2.116082608699798584e-01 4.553101360797882080e-01 6.039222329854965210e-02 7.071626186370849609e-02 4.144809842109680176e-01 1.399380266666412354e-01 1.602151244878768921e-01 2.124491930007934570e-01 -1.525117270648479462e-02 -6.132215261459350586e-02 3.044576048851013184e-01 5.950729250907897949e-01 1.745457947254180908e-01 1.932652667164802551e-02 1.717645078897476196e-01 -8.767385780811309814e-02 3.781981393694877625e-02 1.388868987560272217e-01 2.970744669437408447e-01 1.326408833265304565e-01 -5.536034107208251953e-01 2.859018445014953613e-01 2.033644169569015503e-01 2.536969184875488281e-01 4.021431803703308105e-01 2.806251049041748047e-01 3.560576736927032471e-01 1.147150099277496338e-01 3.969316780567169189e-01 -8.208567500114440918e-01 -4.746449589729309082e-01 -7.075114846229553223e-01 -7.135506272315979004e-01 -4.698236584663391113e-01 -9.010812044143676758e-01 1.521614342927932739e-01 -2.542851269245147705e-01 -3.799594044685363770e-01 -7.184979319572448730e-01 -6.594201922416687012e-01 -5.738309621810913086e-01 -6.177275776863098145e-01 -7.976963520050048828e-01 -7.985576987266540527e-01 -3.102990388870239258e-01 -5.471141934394836426e-01 -5.369936227798461914e-01 -5.182127356529235840e-01 -4.742166697978973389e-01 -4.305379986763000488e-01 -5.574170947074890137e-01 -7.307733297348022461e-01 -6.970389485359191895e-01 -8.930241465568542480e-01 -5.061802864074707031e-01 -5.994004607200622559e-01 -4.669056236743927002e-01 -6.973084807395935059e-01 -4.922067821025848389e-01 -8.220040202140808105e-01 -6.512299776077270508e-01 -7.053853273391723633e-01 -4.645450413227081299e-01 -9.780330061912536621e-01 -3.584334254264831543e-01 -6.956653594970703125e-01 -4.565593600273132324e-01 -4.592093527317047119e-01 -1.009297728538513184e+00 -7.151376605033874512e-01 6.864937953650951385e-03 -4.902954101562500000e-01 -3.658309578895568848e-01 -5.032423734664916992e-01 -3.207834661006927490e-01 -5.281978249549865723e-01 -4.974749386310577393e-01 -6.519507169723510742e-01 -6.858700513839721680e-01 -7.250517606735229492e-01 -2.192260026931762695e-01 -1.055013909935951233e-01 -5.204557180404663086e-01 -7.322407364845275879e-01 -1.809327900409698486e-01 -7.116627097129821777e-01 -2.652986943721771240e-01 -2.236123234033584595e-01 -2.240201644599437714e-02 1.126806437969207764e-01 4.435901045799255371e-01 -2.370342910289764404e-01 -1.095042824745178223e+00 6.065018773078918457e-01 -3.773954808712005615e-01 2.038458585739135742e-01 -6.008670330047607422e-01 1.635152101516723633e-01 -4.325056970119476318e-01 7.019958645105361938e-02 4.249942898750305176e-01 6.271544694900512695e-01 8.374080061912536621e-01 -6.685356497764587402e-01 -1.715172454714775085e-02 -1.308560252189636230e+00 4.537683427333831787e-01 -2.244089394807815552e-01 1.019601523876190186e-01 5.445700883865356445e-01 -5.310617685317993164e-01 5.297214984893798828e-01 -1.008670687675476074e+00 2.725814282894134521e-01 -4.969860017299652100e-01 -1.269443482160568237e-01 -1.246711686253547668e-01 6.989026069641113281e-01 2.501925826072692871e-01 -8.658714592456817627e-02 2.036065012216567993e-01 5.796002745628356934e-01 3.340303003787994385e-01 -4.198777377605438232e-01 2.399134486913681030e-01 6.777923703193664551e-01 -6.256611347198486328e-01 7.825989723205566406e-01 -5.552666187286376953e-01 6.129519343376159668e-01 2.309061884880065918e-01 2.272358685731887817e-01 1.095376610755920410e+00 1.012147869914770126e-02 6.565914154052734375e-01 3.581856787204742432e-01 6.179759502410888672e-01 2.602662742137908936e-01 8.545200228691101074e-01 5.711388587951660156e-01 4.733507931232452393e-01 5.517656803131103516e-01 5.697157979011535645e-01 8.255737423896789551e-01 4.684664607048034668e-01 7.794331312179565430e-01 9.845716357231140137e-01 5.084561109542846680e-01 -7.290832698345184326e-02 4.777876436710357666e-01 5.115522146224975586e-01 1.417147815227508545e-01 8.290915489196777344e-01 3.928331434726715088e-01 5.726847052574157715e-01 1.046010375022888184e+00 6.174438595771789551e-01 3.504619002342224121e-01 -2.165380567312240601e-01 -2.113435268402099609e-01 -2.735567092895507812e-02 -1.240284815430641174e-01 4.567282274365425110e-02 -3.931930363178253174e-01 -1.659682840108871460e-01 3.421543240547180176e-01 1.637800335884094238e-01 -4.130721464753150940e-02 1.085840985178947449e-01 5.660758167505264282e-02 -6.338641792535781860e-02 -1.342449635267257690e-01 -5.342221260070800781e-02 3.305259048938751221e-01 -2.208731323480606079e-02 1.974488496780395508e-01 2.013745009899139404e-01 2.650820612907409668e-01 1.639300733804702759e-01 3.599532544612884521e-01 -3.529566153883934021e-02 1.501127034425735474e-01 -1.320028007030487061e-01 4.707350209355354309e-02 2.416607290506362915e-01 1.873891055583953857e-01 2.742497026920318604e-01 1.811253726482391357e-01 2.621888816356658936e-01 -1.464979443699121475e-02 -9.389628171920776367e-01 9.540422819554805756e-03 8.253086358308792114e-02 3.547511762008070946e-03 -2.092576175928115845e-01 -2.760162055492401123e-01 -7.450262457132339478e-02 5.111309140920639038e-02 1.410633623600006104e-01 1.877189874649047852e-01 -2.205504104495048523e-02 6.379263848066329956e-02 -4.467119872570037842e-01 -4.651432335376739502e-01 -2.031100690364837646e-01 1.188455964438617229e-03 -1.321874856948852539e-01 8.673236519098281860e-02 -2.139019817113876343e-01 -3.496267497539520264e-01 -2.569346725940704346e-01 -1.812589764595031738e-01 -8.677345514297485352e-01 -4.582842588424682617e-01 5.713472142815589905e-02 1.989220231771469116e-01 -5.391678214073181152e-01 -4.379473328590393066e-01 -6.803238391876220703e-01 -2.956809997558593750e-01 -7.571918368339538574e-01 -4.867482781410217285e-01 -6.351296901702880859e-01 -1.915179342031478882e-01 -5.777213349938392639e-02 2.085382677614688873e-02 4.597419202327728271e-01 3.647014796733856201e-01 1.735257543623447418e-02 -7.090321183204650879e-01 -2.540103495121002197e-01 -4.507491290569305420e-01 -2.613857984542846680e-01 1.738673150539398193e-01 4.725298285484313965e-01 1.562341153621673584e-01 2.485985308885574341e-01 -5.363746881484985352e-01 -3.995028138160705566e-01 -4.870618581771850586e-01 -5.655563473701477051e-01 3.526474535465240479e-01 -3.139549866318702698e-02 2.349745929241180420e-01 1.214364618062973022e-01 -8.819096088409423828e-01 -9.127082228660583496e-01 -4.315030872821807861e-01 -3.922321498394012451e-01 -3.261439204216003418e-01 -8.454971760511398315e-02 -3.014541864395141602e-01 3.573805466294288635e-02 -7.038334012031555176e-01 -4.885731637477874756e-01 -4.795241653919219971e-01 -1.080404877662658691e+00 -2.862154841423034668e-01 -3.661132454872131348e-01 -1.417328864336013794e-01 -1.628455519676208496e-01 -4.780953526496887207e-01 -3.217490017414093018e-01 -5.034847259521484375e-01 -3.218862116336822510e-01 -3.432911634445190430e-01 -1.446605473756790161e-01 -3.665358424186706543e-01 -4.483094811439514160e-01 -1.503270417451858521e-01 -2.721808254718780518e-01 -4.827110469341278076e-02 -2.705134153366088867e-01 -7.832882553339004517e-02 -5.918121710419654846e-02 2.007043063640594482e-01 4.289662092924118042e-02 4.289561212062835693e-01 2.245872765779495239e-01 1.214324831962585449e-01 1.246342360973358154e-01 2.345603704452514648e-01 4.143511876463890076e-02 2.854755222797393799e-01 2.031892538070678711e-01
-1.245595142245292664e-02 9.609594941139221191e-03 3.328006714582443237e-02 -1.869205385446548462e-03 -1.003735326230525970e-02 -3.134375438094139099e-02 2.065275609493255615e-02 9.636733680963516235e-03 -1.746629625558853149e-01 -8.891773223876953125e-02 -1.379077732563018799e-01 -5.590041279792785645e-01 -2.835945188999176025e-01 9.051711857318878174e-02 -1.428077835589647293e-02 -2.465932369232177734e-01 -1.293220221996307373e-01 -1.095660775899887085e-01 1.342198401689529419e-01 -1.018246561288833618e-01 -2.406712025403976440e-01 -1.540555506944656372e-01 1.253265291452407837e-01 -1.343044638633728027e-01 -1.357333362102508545e-01 -7.054945081472396851e-02 1.086628213524818420e-01 2.408868372440338135e-01 -4.548984766006469727e-02 -5.917706340551376343e-02 4.282919317483901978e-02 5.661780014634132385e-03 -5.783266946673393250e-02 -6.241969019174575806e-02 2.269088029861450195e-01 3.253674209117889404e-01 3.036737442016601562e-01 1.895247250795364380e-01 3.549825251102447510e-01 8.589054644107818604e-02 2.267666310071945190e-01 2.890321016311645508e-01 5.647007226943969727e-01 6.394870281219482422e-01 5.899098515510559082e-01 6.044790744781494141e-01 5.182155966758728027e-01 3.974976837635040283e-01 2.662880718708038330e-01 3.724986314773559570e-01 1.135205268859863281e+00 1.339944124221801758e+00 8.647832870483398438e-01 6.127074360847473145e-01 5.350325703620910645e-01 3.648062646389007568e-01 1.263661310076713562e-02 -3.206688910722732544e-03 2.584885060787200928e-02 1.833921298384666443e-02 7.911715656518936157e-03 2.630941197276115417e-02 2.567290142178535461e-02 -3.294581919908523560e-02 -1.465697027742862701e-02 3.445094078779220581e-02 -4.106447100639343262e-03 -5.531122907996177673e-03 2.998448908329010010e-02 -2.782164700329303741e-02 2.417445182800292969e-03 2.897914499044418335e-02 -4.315592348575592041e-01 -5.671737194061279297e-01 -4.964039623737335205e-01 -1.012232303619384766e+00 -1.557324409484863281e+00 -8.549994826316833496e-01 -3.254203498363494873e-01 5.578924342989921570e-02 -4.437113404273986816e-01 -9.930808544158935547e-01 -6.860723346471786499e-02 -5.455681085586547852e-01 -7.323448061943054199e-01 -5.789117813110351562e-01 -4.678806066513061523e-01 -6.210640668869018555e-01 -1.615300327539443970e-01 -4.659064859151840210e-02 -1.243615970015525818e-01 -1.386139094829559326e-01 -4.533891975879669189e-01 -5.112175941467285156e-01 -3.246923983097076416e-01 -1.405366957187652588e-01 -1.696327179670333862e-01 -5.118863657116889954e-02 -9.173697978258132935e-02 -1.352420747280120850e-01 -1.135726869106292725e-01 -2.932287752628326416e-01 4.176009073853492737e-02 -2.650133073329925537e-01 -1.143000870943069458e-01 -4.328998550772666931e-02 -1.696076244115829468e-01 -6.689140945672988892e-02 -2.952499985694885254e-01 -2.513410449028015137e-01 -1.184332370758056641e-01 -3.278034925460815430e-01 -8.288433402776718140e-02 -1.221893541514873505e-02 -1.512923687696456909e-01 -1.255756020545959473e-01 1.371259540319442749e-01 -4.811462759971618652e-01 8.125364780426025391e-02 -2.634931504726409912e-01 -4.554964601993560791e-03 4.358164966106414795e-03 -1.773094013333320618e-02 -2.000737003982067108e-02 -3.083986602723598480e-02 1.015968248248100281e-02 -2.576342970132827759e-02 -2.422234416007995605e-02 -2.111833095550537109e-01 -1.998895257711410522e-01 -1.732626557350158691e-02 4.045954719185829163e-02 -1.356481909751892090e-01 1.798015832901000977e-01 -3.904962912201881409e-02 2.126707434654235840e-01 -9.148817509412765503e-02 -8.210166692733764648e-01 2.161830663681030273e-01 -6.538546830415725708e-02 1.885590404272079468e-01 -7.499746046960353851e-03 -1.822457164525985718e-01 -1.009860187768936157e-01 7.835949957370758057e-02 5.735131353139877319e-02 1.828790456056594849e-01 2.921299040317535400e-01 1.048779115080833435e-01 1.855012178421020508e-01 3.476567566394805908e-01 1.085128039121627808e-01 6.616949290037155151e-02 -1.367669254541397095e-01 1.644191145896911621e-01 4.333173334598541260e-01 6.153296679258346558e-02 1.100413724780082703e-01 2.210881561040878296e-01 2.759408056735992432e-01 5.228650569915771484e-01 3.308523893356323242e-01 3.589581847190856934e-01 1.455965787172317505e-01 4.551520943641662598e-01 4.426779448986053467e-01 5.346338748931884766e-01 4.336143434047698975e-01 1.184421926736831665e-01 3.573727607727050781e-01 3.493946194648742676e-01 3.472899496555328369e-01 5.373966693878173828e-01 -2.006864845752716064e-01 7.737704515457153320e-01 -6.019977331161499023e-01 4.634307026863098145e-01 -1.186886578798294067e-01 4.066089391708374023e-01 1.971288919448852539e-01 4.787786900997161865e-01 2.199508100748062134e-01 -2.996592223644256592e-01 2.969332337379455566e-01 3.269886374473571777e-01 -9.175198525190353394e-02 -2.496029287576675415e-01 2.300206720829010010e-01 1.195656806230545044e-01 -2.365936934947967529e-01 -4.681095182895660400e-01 7.904565334320068359e-01 -6.573222875595092773e-01 7.377859950065612793e-01 3.353522121906280518e-01 8.425131440162658691e-02 2.081994712352752686e-02 -1.616666018962860107e-01 -2.377120554447174072e-01 1.900070160627365112e-01 1.941641718149185181e-01 -2.332504838705062866e-01 -1.488406769931316376e-02 5.025865510106086731e-02 -3.117680251598358154e-01 -5.636790990829467773e-01 -3.824789077043533325e-02 -2.596926987171173096e-01 -1.294349431991577148e-01 3.087934851646423340e-02 -9.899908304214477539e-01 -1.661211252212524414e-01 1.611522883176803589e-01 9.889455884695053101e-02 -2.268880456686019897e-01 -8.213667869567871094e-01 1.998716406524181366e-02 -1.112312451004981995e-01 -1.833004690706729889e-02 -4.863500967621803284e-02 7.525315508246421814e-03 -9.966894239187240601e-02 -1.905229538679122925e-01 -2.459155023097991943e-01 -2.069841139018535614e-02 -1.244105491787195206e-02 -1.975188702344894409e-01 -3.011047840118408203e-01 -2.104841172695159912e-01 -1.856880336999893188e-01 2.469737827777862549e-01 -2.099270969629287720e-01 1.988527178764343262e-01 -1.202284395694732666e-01 8.017954975366592407e-02 3.463616594672203064e-02 -6.462188065052032471e-02 -2.577986717224121094e-01 -1.710070520639419556e-01 -2.276142239570617676e-01 3.546959161758422852e-01 4.482789337635040283e-01 -1.137641146779060364e-01 1.700711101293563843e-01 -1.987100541591644287e-01 -1.908710598945617676e-01 1.163649559020996094e-01 1.868823021650314331e-01 6.878851056098937988e-01 2.533533275127410889e-01 2.627991735935211182e-01 -6.873835343867540359e-03 4.165236651897430420e-01 -2.702990174293518066e-01 -2.814268879592418671e-02 -1.327211558818817139e-01 -3.247000742703676224e-03 4.491319656372070312e-01 2.728840708732604980e-01 4.629887938499450684e-01 -8.542771339416503906e-01 1.529505699872970581e-01 2.664028108119964600e-01 -1.077320218086242676e+00 3.425916433334350586e-01 1.941768452525138855e-02 5.033968687057495117e-01 1.812595427036285400e-01 1.303224265575408936e-01 -9.216489642858505249e-02 4.468285739421844482e-01 2.180028408765792847e-01 2.624809145927429199e-01 5.488066673278808594e-01 -5.816499143838882446e-02 4.492435157299041748e-01 2.522162199020385742e-01 9.944278746843338013e-02 2.008968442678451538e-01 1.679085493087768555e-01 5.918026566505432129e-01 6.806415319442749023e-02 3.196408450603485107e-01 1.028479710221290588e-01 2.820876538753509521e-01 2.864515185356140137e-01 5.685538053512573242e-01 -2.577801048755645752e-01 2.803485989570617676e-01 2.635914981365203857e-01 -5.729905366897583008e-01 7.061128616333007812e-01 1.609535664319992065e-01 3.928621709346771240e-01 1.685537025332450867e-02 3.858115673065185547e-01 1.001616269350051880e-01 6.264377385377883911e-02 4.137425124645233154e-01 -2.333727926015853882e-01 5.667564868927001953e-01 -1.075495958328247070e+00 4.619819819927215576e-01 -3.389290273189544678e-01 6.155724078416824341e-02 5.170128941535949707e-01 2.121046744287014008e-02 5.051535367965698242e-01 -3.843941539525985718e-02 3.375670015811920166e-01 4.514783248305320740e-02 3.244163691997528076e-01 4.443543255329132080e-01 -1.475014448165893555e+00 -4.391719102859497070e-01 -6.280851960182189941e-01 -1.372366845607757568e-01 -4.666324853897094727e-01 8.315600156784057617e-01 -9.466336965560913086e-01 1.974605619907379150e-01 -4.399714171886444092e-01 -6.675098538398742676e-01 -4.184921681880950928e-01 4.299319386482238770e-01 -2.452877312898635864e-01 2.406286001205444336e-01 9.134793281555175781e-02 -3.735282719135284424e-01 2.194790542125701904e-01 -4.101180657744407654e-02 -1.664739549160003662e-01 -5.764307975769042969e-01 -8.878573775291442871e-02 6.173542141914367676e-02 1.570845097303390503e-01 2.304954379796981812e-01 -1.182596564292907715e+00 -5.850473884493112564e-03 -4.623678922653198242e-01 -1.290407124906778336e-02 -3.484092056751251221e-01 2.225082814693450928e-01 -1.152346253395080566e+00 1.322171539068222046e-01 -2.423402667045593262e-02 -6.477078795433044434e-01 1.326294541358947754e-01 -3.536742925643920898e-01 1.003138795495033264e-01 -8.540215492248535156e-01 2.251041829586029053e-01 1.801759935915470123e-02 -3.715416789054870605e-01 -1.212539896368980408e-01 -3.021179735660552979e-01 6.100523099303245544e-02 -3.634579777717590332e-01 2.755068242549896240e-01 -4.896816909313201904e-01 -2.241183966398239136e-01 2.158779837191104889e-02 -2.979587316513061523e-01 -1.684800907969474792e-02 -4.388627111911773682e-01 4.452878981828689575e-02 -3.796367645263671875e-01 1.489346027374267578e-01 7.447531819343566895e-02 -1.130991652607917786e-01 1.393003463745117188e-01 -3.481812179088592529e-01 1.696008741855621338e-01 -2.371142506599426270e-01 1.016316637396812439e-01 -6.188624501228332520e-01 -3.034042418003082275e-01 -6.103857159614562988e-01 -2.651347219944000244e-01 1.772492676973342896e-01 -3.071971833705902100e-01 2.917762398719787598e-01 -3.317427763249725103e-04 3.920737206935882568e-01 9.376334026455879211e-03 1.940620988607406616e-01 1.348727643489837646e-01 8.783632516860961914e-02 3.217366933822631836e-01 1.702506095170974731e-01 2.856732010841369629e-01 2.899601757526397705e-01 1.026471406221389771e-01 -5.193640664219856262e-02 5.249442160129547119e-02 -1.392475366592407227e-01 2.631782889366149902e-01 -4.793372377753257751e-02 2.067605964839458466e-02 9.812118113040924072e-02 -1.409862935543060303e-01 -7.239590585231781006e-02 4.003917276859283447e-01 1.105842832475900650e-02 1.978022605180740356e-01 1.592465490102767944e-01 3.958372473716735840e-01 3.019963502883911133e-01 9.288188070058822632e-03 9.798188507556915283e-02 1.452249735593795776e-01 3.748600184917449951e-02 1.064453646540641785e-01 1.029340028762817383e-01 3.062018156051635742e-01 3.419527113437652588e-01 1.832645386457443237e-02 -2.550883591175079346e-01 -2.104379832744598389e-01 2.440854460000991821e-01 2.104670740664005280e-02 2.462262958288192749e-01 4.629549756646156311e-02 1.214920431375503540e-01 4.635117948055267334e-02 -2.945865094661712646e-01 1.573557555675506592e-01 2.310351580381393433e-01 1.636614203453063965e-01 1.258526891469955444e-01 2.878275215625762939e-01 1.612783521413803101e-01 6.351094692945480347e-02 3.471893370151519775e-01 -1.913090199232101440e-01 3.043712675571441650e-01 2.660159766674041748e-01 1.864550560712814331e-01 1.762706935405731201e-01 1.684118621051311493e-02 2.013077288866043091e-01 -4.284514859318733215e-02 2.885896563529968262e-01 2.796638906002044678e-01 3.573112487792968750e-01 6.821763701736927032e-03 -4.629405960440635681e-02 -1.639600545167922974e-01 2.992074191570281982e-01 1.927857100963592529e-01 2.328270971775054932e-01 -5.700433626770973206e-02 2.626142799854278564e-01 5.256938934326171875e-01 2.477595210075378418e-01 3.269523084163665771e-01 3.125106915831565857e-02 -3.009029850363731384e-02 2.915019690990447998e-01 1.226684227585792542e-01 1.036445144563913345e-03 -2.111977785825729370e-01 1.842816174030303955e-01 1.837492287158966064e-01 -9.533895552158355713e-02 -7.184757292270660400e-02 -6.733001023530960083e-02 7.445407565683126450e-03 1.599313616752624512e-01 3.805732131004333496e-01 -8.820527046918869019e-02 2.697497308254241943e-01 2.194882035255432129e-01 -5.112547427415847778e-03 -6.782126147300004959e-04 -1.521126925945281982e-01 -3.107912838459014893e-01 -1.852823048830032349e-01 -3.066807687282562256e-01 -1.536432802677154541e-01 2.002123929560184479e-02 2.669810652732849121e-01 -1.358371675014495850e-01 8.615449070930480957e-02 9.465339034795761108e-02 -2.300816774368286133e-01 1.174912750720977783e-01 2.584145031869411469e-02 2.714179158210754395e-01 2.193755209445953369e-01 6.070355176925659180e-01 3.190388381481170654e-01 4.317799210548400879e-01 -3.488760888576507568e-01 2.434012740850448608e-01 4.216261804103851318e-01 5.593306571245193481e-02 3.317201137542724609e-01 -1.847057938575744629e-01 1.813598126173019409e-01 -5.288519337773323059e-02 1.714689135551452637e-01 -6.908442974090576172e-01 1.505447085946798325e-02 1.324064433574676514e-01 1.329629123210906982e-01 1.533003002405166626e-01 2.726393938064575195e-01 2.488840073347091675e-01 -4.498114064335823059e-02 1.848039776086807251e-01 1.351613849401473999e-01 4.324706494808197021e-01 7.103295326232910156e-01 2.920212447643280029e-01 8.100050687789916992e-01 5.509946346282958984e-01 7.925954461097717285e-01 7.023049592971801758e-01 8.029354214668273926e-01 9.605976343154907227e-01 3.692238926887512207e-01 7.940514683723449707e-01 6.118938922882080078e-01 7.970204353332519531e-01 6.885517835617065430e-01 7.366913557052612305e-01 3.918953835964202881e-01 6.540618538856506348e-01 7.104953527450561523e-01 1.642090976238250732e-01 8.463116288185119629e-01 6.296908259391784668e-01 6.800695657730102539e-01 6.872813701629638672e-01 9.903671145439147949e-01 6.920090913772583008e-01 3.463494479656219482e-01 5.178874135017395020e-01 2.519044578075408936e-01 7.136417031288146973e-01 6.009882688522338867e-01 9.336199164390563965e-01 8.057504296302795410e-01 4.966760873794555664e-01 4.096141755580902100e-01 5.050632953643798828e-01 8.386237025260925293e-01 4.320093393325805664e-01 7.458260059356689453e-01 5.348106622695922852e-01 1.020159602165222168e+00 3.813168406486511230e-01 1.320918947458267212e-01 4.970958828926086426e-01 1.696356981992721558e-01 8.026555180549621582e-01 2.104987353086471558e-01 9.258821010589599609e-01 6.172123551368713379e-01 1.115104913711547852e+00 9.098364710807800293e-01 5.674661397933959961e-01 7.054214477539062500e-01 3.706257343292236328e-01 8.794639110565185547e-01 6.476733684539794922e-01 8.832158446311950684e-01 -2.137380689382553101e-01 -1.957535594701766968e-01 5.457933545112609863e-01 1.077525377273559570e+00 6.788331270217895508e-01 2.902548313140869141e-01 2.500602304935455322e-01 6.204807162284851074e-01 -2.595815956592559814e-01 9.079205244779586792e-02 -2.181230783462524414e-01 2.579541504383087158e-01 4.541186988353729248e-02 1.928678005933761597e-01 -1.924577504396438599e-01 -2.759670913219451904e-01 7.103090733289718628e-02 4.037013351917266846e-01 -2.116671204566955566e-01 -1.630730509757995605e+00 -3.185704648494720459e-01 -4.322487711906433105e-01 3.135126233100891113e-01 2.307875305414199829e-01 -2.932663820683956146e-02 -7.226629257202148438e-01 -2.654427886009216309e-01 -6.408611536026000977e-01 -1.991933435201644897e-01 -8.774691820144653320e-02 -6.772922873497009277e-01 -1.517539381980895996e+00 -1.735195517539978027e-01 1.263711303472518921e-01 1.995027214288711548e-01 -1.276748031377792358e-01 -6.299344450235366821e-02 -6.905765831470489502e-02 4.986227303743362427e-02 -9.430141448974609375e-01 -4.798369109630584717e-02 6.497345864772796631e-02 1.750984191894531250e-01 -5.241563916206359863e-01 1.006486713886260986e-01 -3.399751782417297363e-01 3.042856454849243164e-01 -2.667066752910614014e-01 9.911134093999862671e-02 -1.318313479423522949e-01 -4.069688320159912109e-01 -9.341134130954742432e-02 4.218542948365211487e-02 -2.994309067726135254e-01 -2.179227024316787720e-01 -1.895790100097656250e-01 -9.792249649763107300e-02 1.774696260690689087e-01 -1.316543817520141602e-01 -1.516851335763931274e-01 -2.103075087070465088e-01 -2.895485162734985352e-01 -3.271988034248352051e-01 -6.458961367607116699e-01 1.015986576676368713e-01 -1.412328332662582397e-02 1.595988124608993530e-01 -1.899380087852478027e-01 -4.247245788574218750e-01 -2.458980232477188110e-01 -5.222555994987487793e-01 -2.141028493642807007e-01 -7.423236966133117676e-02 1.255419105291366577e-01 1.768909022212028503e-02 -1.648152172565460205e-01 -1.511159390211105347e-01 -1.163101121783256531e-01 2.608846127986907959e-01 2.389729768037796021e-01 -1.684409379959106445e-01 -1.680431365966796875e-01 -2.202618718147277832e-01 -3.328515589237213135e-01 -2.541936039924621582e-01 -2.624461948871612549e-01 3.150024414062500000e-01 -4.415772855281829834e-02 -8.949073404073715210e-02 -1.037476882338523865e-01 -6.917389631271362305e-01 -3.490623831748962402e-01 -3.156601488590240479e-01 -2.841447591781616211e-01 -1.161677986383438110e-01 2.123991213738918304e-02 -5.853487923741340637e-02 -1.725170761346817017e-01 -1.872583776712417603e-01 -3.206811547279357910e-01 -2.059590220451354980e-01 -4.479917287826538086e-01 -1.250334680080413818e-01 -1.160096973180770874e-01 9.458263218402862549e-02 1.109592691063880920e-01 3.822041675448417664e-02 -1.071431189775466919e-01 -1.695419400930404663e-01 -7.579022645950317383e-02 -7.368448656052350998e-03 -1.705430895090103149e-01 2.533324658870697021e-01 2.090196460485458374e-01 3.160505741834640503e-02 -4.729846119880676270e-02 8.562334626913070679e-02 1.994550824165344238e-01 7.153096050024032593e-02 1.343067139387130737e-01 4.277433454990386963e-01 3.540854156017303467e-01 4.523779749870300293e-01 1.913428604602813721e-01 -2.613397128880023956e-02 9.811427444219589233e-02 2.204395830631256104e-01 2.916138470172882080e-01 6.638460159301757812e-01 4.714272022247314453e-01 1.990598291158676147e-01 7.845673710107803345e-02 -3.285844996571540833e-02 1.203071102499961853e-01 -6.675022095441818237e-02 1.787006109952926636e-01 2.056737393140792847e-01 5.286757946014404297e-01 3.466255068778991699e-01 7.154597640037536621e-01 7.874006628990173340e-01 6.068614125251770020e-01 3.538348674774169922e-01 4.961680173873901367e-01 2.487784922122955322e-01 3.288398683071136475e-01 6.537381410598754883e-01 5.388578772544860840e-01 6.155153512954711914e-01 5.563383698463439941e-01 5.401610136032104492e-01 5.780931115150451660e-01 1.493826061487197876e-01 2.660634927451610565e-02 1.495568752288818359e-01 3.445723950862884521e-01 6.523238420486450195e-01 7.360218763351440430e-01 5.814231634140014648e-01 4.288599789142608643e-01 1.887121200561523438e-01 3.719722032546997070e-01 1.033794581890106201e-01 4.700516164302825928e-01 4.367037713527679443e-01 3.171708285808563232e-01 5.015504956245422363e-01 3.372455835342407227e-01 -3.739188313484191895e-01 1.887455731630325317e-01 3.152474761009216309e-01 2.155324071645736694e-01 1.398661732673645020e-01 -6.582450866699218750e-02 1.562143266201019287e-01 2.893404662609100342e-01 4.578613042831420898e-01 -1.798740215599536896e-02 7.196243852376937866e-02 2.594450414180755615e-01 4.523778706789016724e-02 -1.674973219633102417e-01 1.045394539833068848e-01 2.019710093736648560e-02 -2.822020649909973145e-01 5.275203380733728409e-03 -1.092649698257446289e-01 -2.128758877515792847e-01 -2.418935619061812758e-04 -7.255993038415908813e-02 -2.902535498142242432e-01 -3.456876873970031738e-01 -1.317588210105895996e+00 -3.831189274787902832e-01 -3.926590979099273682e-01 -6.434885263442993164e-01 -3.353111147880554199e-01 -2.953444719314575195e-01 -4.708085358142852783e-01 -4.691151082515716553e-01
-3.606195747852325439e-02 -6.488313898444175720e-03 -2.373187243938446045e-02 -4.531018435955047607e-03 -2.803304791450500488e-02 -1.677792519330978394e-03 3.575979173183441162e-02 3.373320400714874268e-02 -9.594585001468658447e-02 -1.032634451985359192e-01 -8.598102629184722900e-02 -6.813648343086242676e-02 -2.906525135040283203e-01 7.234261184930801392e-02 -5.968155339360237122e-02 -5.819091200828552246e-02 -8.462843298912048340e-02 -6.882952898740768433e-02 -7.702963054180145264e-02 5.634704604744911194e-02 -7.315189391374588013e-02 -3.503188863396644592e-02 -7.186288479715585709e-03 -3.133512660861015320e-02 -1.403463333845138550e-01 -5.806468799710273743e-02 -2.088660746812820435e-01 8.699277043342590332e-02 -2.867548465728759766e-01 8.484693616628646851e-02 -9.031832218170166016e-02 -5.951979011297225952e-02 -1.743232607841491699e-01 -1.732273846864700317e-01 -1.114573478698730469e-01 -2.666114568710327148e-01 -8.096671849489212036e-02 -1.225091516971588135e-01 4.062003921717405319e-03 -9.619871526956558228e-02 -3.651015460491180420e-01 -1.877827048301696777e-01 -2.419992983341217041e-01 -8.729662001132965088e-02 -2.650591172277927399e-02 -1.892841011285781860e-01 -1.200511455535888672e-01 -8.947977423667907715e-02 1.551725268363952637e-01 -5.544478297233581543e-01 -6.489823758602142334e-02 -3.474204242229461670e-01 -8.991295844316482544e-02 -8.513225615024566650e-02 -2.369071990251541138e-01 -1.295672893524169922e+00 -2.981267869472503662e-02 1.903483271598815918e-02 2.240186557173728943e-02 -1.013649627566337585e-02 -2.088189311325550079e-02 -7.523747161030769348e-03 4.104297608137130737e-03 3.404035419225692749e-02 -3.339389339089393616e-02 -1.112580858170986176e-02 4.873570054769515991e-03 -3.557765483856201172e-02 -1.460796594619750977e-02 -2.823856659233570099e-02 -2.498389407992362976e-02 1.263140514492988586e-02 -3.071972727775573730e-01 8.259909227490425110e-03 -1.398016214370727539e-01 5.910823866724967957e-02 1.798050850629806519e-01 3.757816255092620850e-01 6.254711002111434937e-02 5.648994073271751404e-02 -2.676609158515930176e-02 1.142028123140335083e-01 1.383976787328720093e-01 -6.029582396149635315e-02 -2.559405937790870667e-02 -3.992080315947532654e-02 1.745918095111846924e-01 1.858693957328796387e-01 1.264619082212448120e-01 1.684999018907546997e-01 6.043912842869758606e-02 2.035014480352401733e-01 3.168912604451179504e-02 1.286077350378036499e-01 1.176794990897178650e-01 9.892837703227996826e-02 9.158319234848022461e-02 1.563757061958312988e-01 1.171165257692337036e-01 7.275181263685226440e-02 9.051856398582458496e-02 1.180757358670234680e-01 1.288428157567977905e-01 1.459712386131286621e-01 4.063038527965545654e-02 1.827418059110641479e-01 3.875818103551864624e-02 8.400911092758178711e-02 8.796712756156921387e-02 2.308410257101058960e-01 1.613248288631439209e-01 1.902506649494171143e-01 5.145518854260444641e-02 1.477380692958831787e-01 8.799921721220016479e-02 8.626243472099304199e-02 -1.978676766157150269e-02 1.403268873691558838e-01 2.108658105134963989e-01 1.709549278020858765e-01 3.302799910306930542e-02 -4.592731595039367676e-03 2.106210589408874512e-02 -1.397516764700412750e-02 9.459748864173889160e-03 -1.472193188965320587e-02 4.230815917253494263e-03 2.256236597895622253e-02 -2.893778085708618164e-01 -2.409043163061141968e-01 -2.660627961158752441e-01 -3.154187500476837158e-01 -2.888196408748626709e-01 -2.812324762344360352e-01 -1.928563266992568970e-01 -5.709257125854492188e-01 -1.233003959059715271e-01 -4.110790193080902100e-01 -2.461487203836441040e-01 -3.266580998897552490e-01 -2.062810659408569336e-01 -1.226391121745109558e-01 -6.040320992469787598e-01 -3.281149268150329590e-01 -3.407607078552246094e-01 -2.783914208412170410e-01 -2.998636066913604736e-01 -1.909920424222946167e-01 -3.289249241352081299e-01 -1.231594160199165344e-01 -2.151482403278350830e-01 -2.395983189344406128e-01 -4.414356648921966553e-01 -4.202621877193450928e-01 -3.441395163536071777e-01 -2.962982952594757080e-01 -2.269384562969207764e-01 -3.155881464481353760e-01 -4.000373780727386475e-01 -2.417198717594146729e-01 -4.623032212257385254e-01 -3.735003173351287842e-01 -4.446904957294464111e-01 -1.669626086950302124e-01 -3.272539377212524414e-01 -3.115689158439636230e-01 -2.695874869823455811e-01 -4.756694659590721130e-02 -1.746435761451721191e-01 -5.010180473327636719e-01 -2.074284106492996216e-01 -4.034599959850311279e-01 -1.697707623243331909e-01 -5.675857067108154297e-01 -5.066210031509399414e-01 -5.282974243164062500e-01 -3.238415718078613281e-01 -1.998681277036666870e-01 -7.428781390190124512e-01 -2.144412696361541748e-01 -2.891302108764648438e-01 -4.290480613708496094e-01 -3.927074372768402100e-01 -2.073699533939361572e-01 -4.447380304336547852e-01 -3.016162812709808350e-01 -6.437966972589492798e-02 -3.517212867736816406e-01 -4.739561975002288818e-01 -1.328286528587341309e-01 -5.009475350379943848e-01 -5.252292752265930176e-01 3.829559981822967529e-01 -1.634749397635459900e-02 8.696178346872329712e-02 -6.315000355243682861e-02 -6.149951368570327759e-02 3.154290094971656799e-02 2.348332703113555908e-01 -1.000336483120918274e-01 2.239837646484375000e-01 9.713281691074371338e-02 2.579501271247863770e-01 -1.285864785313606262e-02 2.863507866859436035e-01 2.673281542956829071e-02 -1.792353093624114990e-01 -3.050772845745086670e-01 1.679202020168304443e-01 3.009581863880157471e-01 1.901222318410873413e-01 2.008314579725265503e-01 5.300892889499664307e-02 -8.785607293248176575e-03 -2.269978076219558716e-01 -3.078187108039855957e-01 3.032116591930389404e-01 2.645086050033569336e-01 3.443902432918548584e-01 1.451440602540969849e-01 1.434096097946166992e-01 1.342202126979827881e-01 1.689708419144153595e-02 9.133428335189819336e-02 2.892446517944335938e-01 2.874857187271118164e-01 1.931693851947784424e-01 3.066032528877258301e-01 -6.259778141975402832e-02 4.021249413490295410e-01 9.984320402145385742e-02 2.520155012607574463e-01 2.981858849525451660e-01 1.932515799999237061e-01 3.616693913936614990e-01 3.097120225429534912e-01 2.928575575351715088e-01 3.366792201995849609e-01 3.000732362270355225e-01 3.440823256969451904e-01 3.094301819801330566e-01 4.793083667755126953e-02 2.392747700214385986e-01 2.010068297386169434e-01 4.162461757659912109e-01 3.342998921871185303e-01 2.532123923301696777e-01 1.360243111848831177e-01 1.425915490835905075e-02 4.051512479782104492e-01 2.533381879329681396e-01 3.800152242183685303e-01 1.416870206594467163e-01 1.790293455123901367e-01 3.789552450180053711e-01 3.433066010475158691e-01 -1.169908791780471802e-01 -6.497085094451904297e-01 -1.284852027893066406e-01 -5.381755828857421875e-01 4.187465179711580276e-03 -6.059232354164123535e-01 -1.539402008056640625e-01 -5.688102841377258301e-01 -4.421077072620391846e-01 -1.876790970563888550e-01 -5.994756221771240234e-01 -5.561603233218193054e-02 -5.000100731849670410e-01 -2.268286645412445068e-01 -5.666990280151367188e-01 -3.131798803806304932e-01 -3.168934285640716553e-01 -5.841664671897888184e-01 -1.163169667124748230e-01 -6.636472940444946289e-01 -2.021557837724685669e-02 -5.274203419685363770e-01 -1.091443672776222229e-01 -5.834473371505737305e-01 -5.267334580421447754e-01 -1.269490122795104980e-01 -6.125894784927368164e-01 -2.652318216860294342e-03 -5.705555081367492676e-01 -1.784232854843139648e-01 -7.019251585006713867e-01 -1.636530756950378418e-01 -2.171012759208679199e-01 -6.652482748031616211e-01 -1.107241958379745483e-01 -5.201878547668457031e-01 -1.057843565940856934e-01 -4.369411766529083252e-01 -2.415104359388351440e-01 -5.466213226318359375e-01 -2.257561236619949341e-01 -7.662139832973480225e-02 -5.522691011428833008e-01 -1.990071982145309448e-01 -3.360861837863922119e-01 -2.641530632972717285e-01 -5.379400849342346191e-01 4.219951108098030090e-02 -1.008233800530433655e-01 -4.008150696754455566e-01 -2.959502339363098145e-01 -3.146169483661651611e-01 -1.014288142323493958e-01 -6.224954724311828613e-01 -2.345895618200302124e-01 -5.680999159812927246e-01 -5.155601501464843750e-01 -1.216455549001693726e-02 -4.460680782794952393e-01 -3.095986843109130859e-01 -5.024389028549194336e-01 -2.619414329528808594e-01 2.654093876481056213e-02 -7.995919138193130493e-02 -1.252116076648235321e-02 3.242006897926330566e-01 7.496853917837142944e-02 9.150584787130355835e-02 -1.507976502180099487e-01 2.159610949456691742e-02 -3.492945432662963867e-01 3.089146912097930908e-01 4.160220269113779068e-03 3.955369070172309875e-02 1.795548349618911743e-01 -9.760623425245285034e-02 -5.078553687781095505e-03 -4.954222962260246277e-02 1.759629100561141968e-01 -3.517186343669891357e-01 -9.334815293550491333e-02 2.126730084419250488e-01 -4.819037392735481262e-02 1.950280219316482544e-01 -1.619518995285034180e-01 5.014850199222564697e-02 -2.542718872427940369e-02 -2.265374176204204559e-02 1.823550909757614136e-01 1.161965802311897278e-01 2.404442727565765381e-01 4.483232647180557251e-02 3.231124579906463623e-01 -1.995942890644073486e-01 2.680363655090332031e-01 5.841249600052833557e-02 1.706661880016326904e-01 1.366726160049438477e-01 3.356573358178138733e-02 3.788064718246459961e-01 -1.404605209827423096e-01 3.815535902976989746e-01 -2.755957841873168945e-01 3.296431601047515869e-01 3.064920306205749512e-01 2.263262867927551270e-01 2.754077911376953125e-01 1.672605872154235840e-01 3.199767768383026123e-01 1.160609051585197449e-01 4.058203995227813721e-01 1.556045860052108765e-01 -7.079745084047317505e-02 2.750324606895446777e-01 4.724392667412757874e-02 2.746921777725219727e-01 2.367128729820251465e-01 2.492897361516952515e-01 2.510915100574493408e-01 4.824245572090148926e-01 2.065832614898681641e-01 1.372593939304351807e-01 2.944409549236297607e-01 2.594181001186370850e-01 2.093635946512222290e-01 3.256306350231170654e-01 3.279956579208374023e-01 2.640590667724609375e-01 -4.830154180526733398e-01 -3.852203488349914551e-01 -5.948187112808227539e-01 -4.510165154933929443e-01 -4.434409737586975098e-01 -3.132289946079254150e-01 -5.062094926834106445e-01 -4.517562389373779297e-01 -4.646028876304626465e-01 -5.878785252571105957e-01 -4.270591139793395996e-01 -5.121112465858459473e-01 -4.174530506134033203e-01 -4.316251575946807861e-01 -4.181505143642425537e-01 -4.399971067905426025e-01 -4.047534167766571045e-01 -3.850656151771545410e-01 -3.989549577236175537e-01 -4.159854352474212646e-01 -3.461169004440307617e-01 -4.141786694526672363e-01 -3.583170473575592041e-01 -4.309476912021636963e-01 -3.151467740535736084e-01 -4.759410917758941650e-01 -3.804984092712402344e-01 -4.168678224086761475e-01 -2.418524473905563354e-01 -5.075513720512390137e-01 -3.488175570964813232e-01 -3.995902836322784424e-01 -4.325541853904724121e-01 -2.594151198863983154e-01 -3.840559720993041992e-01 -3.520213067531585693e-01 -4.508720636367797852e-01 -2.179932743310928345e-01 -3.034896254539489746e-01 -3.871406912803649902e-01 -4.017091989517211914e-01 -4.146952629089355469e-01 -4.556079208850860596e-01 -4.370348155498504639e-01 -2.263783514499664307e-01 -2.857262492179870605e-01 -3.592234253883361816e-01 -3.966404199600219727e-01 -4.377066195011138916e-01 -4.474406540393829346e-01 -6.080060601234436035e-01 -4.072225391864776611e-01 -4.464020431041717529e-01 -3.568090200424194336e-01 -6.302871108055114746e-01 -3.606812059879302979e-01 -4.932678341865539551e-01 -6.338896155357360840e-01 -5.604482293128967285e-01 -7.951851487159729004e-01 -4.155814051628112793e-01 -6.036600470542907715e-01 -3.153337836265563965e-01 -5.301593542098999023e-01 1.744416207075119019e-01 1.005063951015472412e-01 1.732572317123413086e-01 1.643607318401336670e-01 -1.065559744834899902e+00 2.259595245122909546e-01 4.199652373790740967e-01 2.211629301309585571e-01 3.147130310535430908e-01 2.353990823030471802e-01 2.331051677465438843e-01 2.404970526695251465e-01 4.084363579750061035e-01 4.689171910285949707e-01 4.802449643611907959e-01 3.114168643951416016e-01 4.717582762241363525e-01 4.503031671047210693e-01 3.884233534336090088e-01 4.605087339878082275e-01 6.705005653202533722e-03 3.544938266277313232e-01 2.653766572475433350e-01 3.085108697414398193e-01 4.390127658843994141e-01 4.755880236625671387e-01 4.940728843212127686e-01 3.650824427604675293e-01 4.046657085418701172e-01 4.527249336242675781e-01 3.016806542873382568e-01 7.331118732690811157e-02 4.222694039344787598e-01 4.944596588611602783e-01 3.732587993144989014e-01 4.011553525924682617e-01 1.092472746968269348e-01 3.604289591312408447e-01 3.121384978294372559e-01 4.159649610519409180e-01 4.498057365417480469e-01 3.103770613670349121e-01 4.390318393707275391e-01 4.158490598201751709e-01 4.145329296588897705e-01 2.803037464618682861e-01 2.428467124700546265e-01 1.366786658763885498e-01 3.452066481113433838e-01 3.803267478942871094e-01 3.832731246948242188e-01 4.120595753192901611e-01 3.632807135581970215e-01 4.117711484432220459e-01 2.985700964927673340e-01 2.297068983316421509e-01 3.955934047698974609e-01 3.754511773586273193e-01 4.008807837963104248e-01 4.305032491683959961e-01 3.677441477775573730e-01 4.158662855625152588e-01 2.195432037115097046e-01 2.480815947055816650e-01 -1.092928528785705566e+00 -1.010149717330932617e+00 -7.744264006614685059e-01 -9.886079430580139160e-01 -9.199290871620178223e-01 -6.993377208709716797e-01 -6.462250351905822754e-01 -8.841916322708129883e-01 -1.225844979286193848e+00 -9.702986478805541992e-01 -9.641095399856567383e-01 -9.833322763442993164e-01 -1.022103667259216309e+00 -9.469833374023437500e-01 -1.015936970710754395e+00 -1.158883690834045410e+00 -1.125958681106567383e+00 -1.019143342971801758e+00 -7.416185140609741211e-01 -1.073552966117858887e+00 -7.606752514839172363e-01 -9.742220640182495117e-01 -8.818677067756652832e-01 -1.061708331108093262e+00 -1.137374162673950195e+00 -9.324178099632263184e-01 -1.049883365631103516e+00 -8.444954752922058105e-01 -8.391207456588745117e-01 -9.950885772705078125e-01 -9.598171710968017578e-01 -9.587383866310119629e-01 -6.983246207237243652e-01 -1.136461377143859863e+00 -8.118010759353637695e-01 -9.508398175239562988e-01 -8.707430362701416016e-01 -8.451485633850097656e-01 -8.088709115982055664e-01 -1.094637155532836914e+00 -9.269194602966308594e-01 -3.406764864921569824e-01 -9.327945709228515625e-01 -1.131438136100769043e+00 -1.026299357414245605e+00 -9.101702570915222168e-01 -1.080981254577636719e+00 -1.043397068977355957e+00 -9.858491420745849609e-01 -9.581593275070190430e-01 -9.468954205513000488e-01 -4.117480516433715820e-01 -9.046247005462646484e-01 -1.307021617889404297e+00 -1.455040097236633301e+00 -1.376116514205932617e+00 -1.343194365501403809e+00 -9.560375809669494629e-01 -1.957768321037292480e+00 -1.153302788734436035e+00 -8.457499742507934570e-01 -1.742151141166687012e+00 -2.014603376388549805e+00 -1.224470973014831543e+00 4.678676724433898926e-01 -1.353247165679931641e-01 -1.193742752075195312e+00 -5.664780735969543457e-01 -9.786607027053833008e-01 -4.067022502422332764e-01 -4.049354791641235352e-01 3.869589865207672119e-01 3.896339535713195801e-01 2.857187576591968536e-02 5.520752072334289551e-01 -8.828992843627929688e-01 -1.015503764152526855e+00 -8.309827446937561035e-01 -9.102132171392440796e-02 2.659301161766052246e-01 1.534905284643173218e-01 -9.342142343521118164e-01 7.907391339540481567e-02 5.552171468734741211e-01 -1.191160082817077637e+00 -3.424709439277648926e-01 -1.028119921684265137e+00 -5.842823982238769531e-01 5.848865509033203125e-01 2.980713546276092529e-01 5.376707911491394043e-01 -9.212132692337036133e-01 2.379173338413238525e-01 -1.149478554725646973e+00 6.012823581695556641e-01 -8.148520588874816895e-01 4.582127928733825684e-01 7.330822348594665527e-01 -1.021546006202697754e+00 7.465324997901916504e-01 -1.069231510162353516e+00 7.714806795120239258e-01 -7.315952181816101074e-01 3.759644031524658203e-01 7.573466300964355469e-01 4.227764010429382324e-01 7.179891467094421387e-01 4.636511802673339844e-01 7.891688942909240723e-01 3.841521739959716797e-01 6.719886064529418945e-01 -5.714092403650283813e-02 5.490709543228149414e-01 7.006901502609252930e-01 5.355136990547180176e-01 8.399541974067687988e-01 5.555375814437866211e-01 6.440689563751220703e-01 2.644721865653991699e-01 -6.213605999946594238e-01 7.876123785972595215e-01 5.363531708717346191e-01 6.345628499984741211e-01 7.303143739700317383e-01 6.281379461288452148e-01 6.721204519271850586e-01 2.854660153388977051e-01 2.643445134162902832e-01 1.755064874887466431e-01 1.673466563224792480e-01 9.991157054901123047e-02 9.183613210916519165e-02 1.046751737594604492e-01 3.488976880908012390e-02 -5.353990476578474045e-03 1.872366219758987427e-01 3.760984539985656738e-01 1.331737488508224487e-01 2.047944515943527222e-01 1.059139147400856018e-01 -3.271120041608810425e-02 3.139576315879821777e-02 2.660031989216804504e-02 4.461781680583953857e-02 2.492218278348445892e-03 1.222872436046600342e-01 8.159212023019790649e-02 -1.081473287194967270e-02 4.921173676848411560e-02 2.780791558325290680e-02 9.140431135892868042e-02 2.330875769257545471e-02 1.002372950315475464e-01 7.454396039247512817e-02 9.003666229546070099e-03 6.762039661407470703e-02 -7.447656244039535522e-02 7.698538899421691895e-02 3.696290776133537292e-02 -3.459639474749565125e-02 3.729689121246337891e-01 -1.963100209832191467e-02 6.399808824062347412e-02 1.277382578700780869e-02 3.072206396609544754e-03 7.232413440942764282e-02 -5.391949415206909180e-02 1.116095036268234253e-01 -7.422372698783874512e-02 3.600017130374908447e-01 2.926746569573879242e-02 8.195383101701736450e-02 -1.990614533424377441e-01 -1.990747451782226562e-01 -1.926398873329162598e-01 -2.077936828136444092e-01 2.230885773897171021e-01 2.546405792236328125e-01 1.007770672440528870e-01 8.013348281383514404e-02 2.655398547649383545e-01 4.306989256292581558e-03 -1.781729012727737427e-01 -6.145919486880302429e-02 5.287921056151390076e-02 2.851668186485767365e-02 -9.489065408706665039e-02 6.916977465152740479e-02 2.800898253917694092e-01 -5.275458097457885742e-01 -8.856395483016967773e-01 -3.979535400867462158e-02 -5.251142978668212891e-01 1.655870229005813599e-01 1.145990267395973206e-01 -2.618587017059326172e-01 2.874479293823242188e-01 -8.254636824131011963e-02 -1.422331482172012329e-01 7.026518136262893677e-02 -9.916186332702636719e-02 3.142349123954772949e-01 2.445896565914154053e-01 -1.126747876405715942e-01 1.562234163284301758e-01 7.060682773590087891e-02 2.557572722434997559e-01 2.661286592483520508e-01 1.053288727998733521e-01 9.029592573642730713e-02 -8.408158272504806519e-02 4.470516741275787354e-02 -9.647410362958908081e-02 2.313060611486434937e-01 2.978107035160064697e-01 2.061760127544403076e-01 -9.463717788457870483e-02 -1.772498786449432373e-01 1.399773061275482178e-01 -2.638581907376646996e-03 2.323924899101257324e-01 2.024776786565780640e-01 3.039604723453521729e-01 7.434752583503723145e-02 5.667707696557044983e-02 1.157911941409111023e-01 -5.527651309967041016e-02 1.294615715742111206e-01 -3.046720288693904877e-03 2.195124477148056030e-01 1.686835438013076782e-01 1.839817315340042114e-01 -2.070940844714641571e-02 -2.124170660972595215e-01 1.880226433277130127e-01 -5.487223342061042786e-02 1.804677993059158325e-01 -1.666636206209659576e-02 7.104312628507614136e-02 -1.507255285978317261e-01 -7.534275054931640625e-01 1.189287900924682617e-01 6.025388464331626892e-02 4.468242451548576355e-02 -6.447977572679519653e-02 1.159201934933662415e-01 -7.042278535664081573e-03 1.045464421622455120e-03 -1.310304850339889526e-01 -4.541211947798728943e-02 3.392435982823371887e-02 7.194045931100845337e-02 1.000049561262130737e-01 -5.469384789466857910e-02 -1.994250342249870300e-02 -1.157455518841743469e-01
3.321668505668640137e-02 -2.860510535538196564e-02 -1.839684508740901947e-02 -8.550584316253662109e-04 -9.811494499444961548e-03 -1.208181120455265045e-02 -7.371732965111732483e-03 2.425045147538185120e-02 -7.964978367090225220e-02 8.532958477735519409e-02 2.486282773315906525e-02 -2.336703091859817505e-01 -2.483884990215301514e-01 -8.825156092643737793e-02 -3.688604803755879402e-03 -2.667949497699737549e-01 -3.193883597850799561e-02 -1.273525208234786987e-01 -6.747991591691970825e-02 -2.160902768373489380e-01 1.208346895873546600e-02 -2.113312035799026489e-01 -1.899120509624481201e-01 -2.565109729766845703e-01 -2.460700571537017822e-01 -7.186822593212127686e-02 -2.283361256122589111e-01 -7.916957139968872070e-02 -6.737271696329116821e-02 -1.611530482769012451e-01 -1.420212686061859131e-01 -3.194597959518432617e-01 -3.371196091175079346e-01 -1.235070675611495972e-01 -2.853617966175079346e-01 -7.789345085620880127e-02 -7.602278143167495728e-02 1.966755650937557220e-02 -4.881511995336040854e-05 -1.161337420344352722e-01 -2.037261724472045898e-01 -2.189478427171707153e-01 -3.714758530259132385e-02 -1.228614449501037598e-01 -1.064667627215385437e-01 1.252074390649795532e-01 2.163092643022537231e-01 -4.062091708183288574e-01 1.010531410574913025e-01 1.280675977468490601e-01 -5.199945569038391113e-01 -3.458053469657897949e-01 -4.542780518531799316e-01 -1.692044138908386230e-01 3.808995485305786133e-01 1.145576238632202148e-01 3.256078809499740601e-02 2.125129848718643188e-02 1.379154622554779053e-03 -4.446901381015777588e-03 3.392808884382247925e-02 2.930514514446258545e-03 -1.107836142182350159e-02 3.142234683036804199e-02 -6.921643391251564026e-03 -1.034523546695709229e-02 -1.283604465425014496e-02 7.784921675920486450e-03 1.887383684515953064e-02 2.980298548936843872e-02 2.727160602807998657e-02 -2.922209538519382477e-02 6.082720160484313965e-01 3.756715357303619385e-01 5.072670578956604004e-01 3.877417445182800293e-01 -1.367026269435882568e-01 -3.082419335842132568e-01 -6.656243801116943359e-01 1.299164444208145142e-01 2.361776679754257202e-01 2.294463515281677246e-01 2.080468386411666870e-01 -3.103053383529186249e-02 2.029521018266677856e-01 -9.732400625944137573e-02 -1.613636314868927002e-01 6.238508503884077072e-04 2.261965423822402954e-01 1.646800786256790161e-01 -4.139577597379684448e-02 -8.460810035467147827e-02 1.085787639021873474e-02 -5.964102223515510559e-02 -6.262597441673278809e-02 -2.655726075172424316e-01 5.286953449249267578e-01 1.851259022951126099e-01 1.323096901178359985e-01 -2.138837128877639771e-01 7.408141344785690308e-02 1.751751825213432312e-02 1.459905207157135010e-01 1.259469538927078247e-01 3.930917084217071533e-01 3.466329872608184814e-01 1.747190207242965698e-02 -9.079845994710922241e-02 1.346392035484313965e-01 -6.068206951022148132e-02 3.214829564094543457e-01 7.275655865669250488e-02 4.785914123058319092e-01 1.749104708433151245e-01 1.588335186243057251e-01 -7.945758849382400513e-02 1.173912584781646729e-01 -1.310348510742187500e-01 1.213250532746315002e-01 2.930537052452564240e-02 -1.220211386680603027e-03 2.171456068754196167e-02 2.961285412311553955e-03 7.944468408823013306e-03 -1.079803518950939178e-02 2.995175123214721680e-02 -2.539120241999626160e-02 3.278648108243942261e-02 -2.487608939409255981e-01 2.034727036952972412e-01 4.148585349321365356e-02 -5.240486469119787216e-03 -2.015001624822616577e-01 -2.276118397712707520e-01 2.297711521387100220e-01 -7.293508201837539673e-02 -9.226282685995101929e-02 -9.671291112899780273e-01 -1.515757739543914795e-01 9.053751826286315918e-02 5.469025671482086182e-02 -2.764525413513183594e-01 -1.474108397960662842e-01 -2.391943335533142090e-01 -4.252482578158378601e-02 1.437503006309270859e-02 2.748950421810150146e-01 -7.170592993497848511e-02 -1.928921788930892944e-03 1.924073547124862671e-01 1.284196134656667709e-02 1.392467617988586426e-01 -9.155919402837753296e-02 -1.040630042552947998e-01 1.827256530523300171e-01 -2.647178620100021362e-02 2.104896306991577148e-01 1.464633047580718994e-01 -5.687201395630836487e-02 -1.567096412181854248e-01 -2.153017371892929077e-02 1.747348308563232422e-01 -1.296908855438232422e-01 2.665846943855285645e-01 2.275966703891754150e-01 -1.079392582178115845e-01 1.819382011890411377e-01 -1.363703012466430664e-01 2.100637555122375488e-01 2.286072075366973877e-02 -2.733737826347351074e-01 -1.002780813723802567e-02 1.803218722343444824e-01 -1.712570711970329285e-02 2.058571875095367432e-01 -8.615995943546295166e-02 -2.516994178295135498e-01 2.497815191745758057e-01 4.427503943443298340e-01 1.250943541526794434e-01 -1.896793246269226074e-01 3.412521183490753174e-01 4.534377753734588623e-01 1.159402653574943542e-01 2.896162867546081543e-01 2.013936042785644531e-01 -1.657001972198486328e-01 7.433351874351501465e-02 -8.443676680326461792e-02 -8.114871382713317871e-01 1.640321165323257446e-01 3.928254544734954834e-01 3.463133424520492554e-02 -5.289913415908813477e-01 4.793676733970642090e-01 2.632885575294494629e-01 7.122461795806884766e-01 4.230118989944458008e-01 -5.175833702087402344e-01 -4.267732426524162292e-02 1.376054733991622925e-01 8.973773568868637085e-02 -2.008327841758728027e-01 1.515842974185943604e-01 -4.340064525604248047e-02 -5.941260233521461487e-02 -8.079541921615600586e-01 -4.331746138632297516e-03 4.803804755210876465e-01 2.705233693122863770e-01 -7.251492235809564590e-03 -2.742699719965457916e-02 -2.686317265033721924e-01 1.270469278097152710e-01 3.268761038780212402e-01 7.165568321943283081e-02 2.317490875720977783e-01 -6.059100478887557983e-02 -8.226884901523590088e-02 -3.132446706295013428e-01 5.145499482750892639e-02 -2.148712426424026489e-01 6.734128296375274658e-02 -4.136418551206588745e-02 -5.063197016716003418e-02 1.365603953599929810e-01 -8.485399931669235229e-02 -9.990258514881134033e-02 -9.949547797441482544e-02 -1.238061115145683289e-01 -1.393649727106094360e-01 5.786335468292236328e-02 2.200538991019129753e-03 -2.131212502717971802e-01 -2.070559412240982056e-01 -1.396917849779129028e-01 -5.079363007098436356e-03 -1.070791855454444885e-01 -6.488066911697387695e-02 -7.158809155225753784e-02 9.294412285089492798e-02 -1.058213561773300171e-01 -8.196265995502471924e-02 -1.078864783048629761e-01 -4.002878069877624512e-02 -1.525091528892517090e-01 1.363366097211837769e-01 7.083772122859954834e-02 2.657663822174072266e-01 -1.727342754602432251e-01 2.476527839899063110e-01 2.344562485814094543e-02 7.949768565595149994e-03 5.516392365097999573e-02 -9.186007082462310791e-02 4.358938634395599365e-01 8.126416057348251343e-02 -8.864150196313858032e-02 3.334483802318572998e-01 -2.724145054817199707e-01 1.700616329908370972e-01 2.151931673288345337e-01 -1.168409511446952820e-01 2.500005662441253662e-01 4.058935344219207764e-01 5.373081564903259277e-01 3.217156827449798584e-01 2.530440986156463623e-01 2.737409770488739014e-01 2.126691639423370361e-01 3.074879050254821777e-01 1.797049492597579956e-01 4.360602200031280518e-01 2.065066844224929810e-01 3.495561778545379639e-01 1.222084090113639832e-01 3.223736882209777832e-01 2.518401741981506348e-01 8.914504200220108032e-02 4.794281348586082458e-02 1.786531805992126465e-01 5.823291093111038208e-02 1.862534880638122559e-01 1.267425119876861572e-01 1.172371804714202881e-01 2.425648868083953857e-01 5.362467095255851746e-02 1.930192857980728149e-01 6.043769419193267822e-02 1.376634985208511353e-01 7.767497748136520386e-02 -9.856023639440536499e-02 2.665852010250091553e-01 -4.122579991817474365e-01 3.242041170597076416e-01 1.935228407382965088e-01 -6.806439161300659180e-01 2.122244387865066528e-01 -4.264430105686187744e-01 -1.374112516641616821e-01 -1.427051872014999390e-01 1.451412588357925415e-01 4.310287535190582275e-02 -4.765778034925460815e-02 -1.067529439926147461e+00 4.094994068145751953e-01 -3.913918626494705677e-04 -3.758709430694580078e-01 -2.698433399200439453e-01 -6.819310784339904785e-02 2.645570933818817139e-01 4.341808147728443146e-03 -1.379511803388595581e-01 1.724980175495147705e-01 -1.649725735187530518e-01 -4.447294473648071289e-01 -7.209466695785522461e-01 3.305381536483764648e-01 7.469960954040288925e-03 4.380117952823638916e-01 -4.259498119354248047e-01 3.845328092575073242e-01 3.687749505043029785e-01 5.209855437278747559e-01 -2.652201950550079346e-01 1.531863361597061157e-01 1.609854549169540405e-01 -3.782629370689392090e-01 -1.143228784203529358e-01 -3.373325765132904053e-01 -9.353805216960608959e-04 3.086233437061309814e-01 2.561621069908142090e-01 -4.687424004077911377e-02 -7.440007328987121582e-01 -6.624273061752319336e-01 3.028666675090789795e-01 1.623016893863677979e-01 1.691179871559143066e-01 2.049168497323989868e-01 6.313966214656829834e-02 1.139504462480545044e-01 1.280945632606744766e-02 3.809548914432525635e-01 -1.314007639884948730e-01 -2.432516962289810181e-01 2.739623375236988068e-02 -3.041875660419464111e-01 -1.574303582310676575e-02 -7.854828983545303345e-02 -5.801057443022727966e-02 -1.525288224220275879e-01 1.070630103349685669e-01 -3.597303479909896851e-02 -1.471512615680694580e-01 -2.502685785293579102e-01 -1.469457894563674927e-01 -8.716374635696411133e-02 -9.642519801855087280e-02 -5.786720663309097290e-02 -2.450011670589447021e-01 -7.998715341091156006e-02 -1.301190853118896484e-01 -2.565639615058898926e-01 -7.699831575155258179e-02 -3.114001154899597168e-01 8.921070024371147156e-03 -9.331750124692916870e-02 -1.530996859073638916e-01 -2.753767967224121094e-01 -9.222812950611114502e-02 -2.742712572216987610e-02 -1.893555223941802979e-01 -1.113400682806968689e-01 -4.201021492481231689e-01 -3.094095923006534576e-02 5.825242400169372559e-02 -1.583854109048843384e-01 -1.223798617720603943e-01 1.073748171329498291e-01 -1.923224329948425293e-01 -1.983888596296310425e-01 9.393095038831233978e-03 -1.689969748258590698e-01 -4.270072653889656067e-02 -1.299471259117126465e-01 -1.614808887243270874e-01 9.194202721118927002e-03 -4.054826498031616211e-02 6.010358408093452454e-02 -5.253718234598636627e-03 2.592148482799530029e-01 -2.786983251571655273e-01 -4.098426699638366699e-01 -3.471471965312957764e-01 -8.223160356283187866e-02 -2.421482652425765991e-01 -1.978442072868347168e-01 -4.421194025781005621e-04 -7.539393007755279541e-02 -4.958299994468688965e-01 1.184129938483238220e-01 -1.590666025876998901e-01 -3.816951513290405273e-01 -2.265883088111877441e-01 -1.838353276252746582e-01 -5.440749228000640869e-02 -2.054765522480010986e-01 -3.214893937110900879e-01 -4.339794814586639404e-01 -5.754147842526435852e-02 -1.564404070377349854e-01 -1.253972798585891724e-01 -7.111488282680511475e-02 -2.974322438240051270e-02 -3.935183957219123840e-02 -5.443494319915771484e-01 4.035014212131500244e-01 -5.233321189880371094e-01 -3.425594270229339600e-01 1.845078766345977783e-01 -4.558014869689941406e-01 1.464015692472457886e-01 1.339423209428787231e-01 -1.234602704644203186e-01 5.827629566192626953e-02 1.362140625715255737e-01 -2.028736472129821777e-01 -5.201230198144912720e-02 -2.549607753753662109e-01 1.384575814008712769e-01 2.041249722242355347e-01 1.296444833278656006e-01 -3.857941031455993652e-01 2.848298847675323486e-01 -1.017612293362617493e-01 -6.464197486639022827e-02 -8.939073234796524048e-02 1.474574357271194458e-01 2.266491502523422241e-01 -3.641254901885986328e-01 -5.505692958831787109e-01 -9.947045892477035522e-02 -9.681102633476257324e-02 -2.892623245716094971e-01 -3.532905876636505127e-01 8.395153284072875977e-02 2.202936261892318726e-01 -2.110280096530914307e-02 3.451143503189086914e-01 1.328212767839431763e-01 8.354998826980590820e-01 -5.939587950706481934e-02 -4.488909542560577393e-01 3.081772848963737488e-02 -7.475106045603752136e-03 -8.096316456794738770e-02 3.189305365085601807e-01 5.506926774978637695e-02 3.040277063846588135e-01 4.792250394821166992e-01 1.753568649291992188e-01 4.519995301961898804e-02 -1.694712191820144653e-01 2.367718517780303955e-01 2.694120705127716064e-01 2.420575916767120361e-01 2.112112380564212799e-02 -5.493732690811157227e-01 -1.423743069171905518e-01 -3.815186023712158203e-01 -8.415813744068145752e-02 4.469472169876098633e-01 2.339924452826380730e-03 3.555978238582611084e-01 1.112148240208625793e-01 -3.291163444519042969e-01 4.268644154071807861e-01 -1.756531298160552979e-01 -2.167065143585205078e-01 3.822626471519470215e-01 3.810309171676635742e-01 4.252263009548187256e-01 -7.248510420322418213e-02 1.315506398677825928e-01 1.506286114454269409e-01 -5.108703970909118652e-01 -3.394874557852745056e-02 5.786054730415344238e-01 9.207145124673843384e-02 3.233168125152587891e-01 2.120401710271835327e-01 2.982155978679656982e-01 2.478226274251937866e-01 7.604417041875422001e-04 -3.048058226704597473e-02 5.607687830924987793e-01 4.786176085472106934e-01 1.712820678949356079e-01 1.654231250286102295e-01 2.986267507076263428e-01 1.885918527841567993e-01 5.642894506454467773e-01 1.604952067136764526e-01 3.080076277256011963e-01 3.252159655094146729e-01 1.144079864025115967e-01 1.556770503520965576e-01 1.745525896549224854e-01 1.527667939662933350e-01 2.641695737838745117e-01 -5.704774335026741028e-02 5.872036814689636230e-01 3.084719777107238770e-01 5.619128942489624023e-01 8.148249983787536621e-01 6.852422952651977539e-01 3.648687899112701416e-01 6.476899981498718262e-01 -1.341613769531250000e+00 1.908524334430694580e-01 8.687039017677307129e-01 8.429857492446899414e-01 6.337784528732299805e-01 7.704943418502807617e-01 7.793774008750915527e-01 9.492172002792358398e-01 1.155051231384277344e+00 6.645621061325073242e-01 8.329867124557495117e-01 7.599778771400451660e-01 7.394068241119384766e-01 8.229615688323974609e-01 7.245984673500061035e-01 8.125240206718444824e-01 3.941847681999206543e-01 6.803086400032043457e-01 5.639226436614990234e-01 7.910477519035339355e-01 6.121120452880859375e-01 7.187280058860778809e-01 5.977197885513305664e-01 6.363486051559448242e-01 6.557320356369018555e-01 6.310258507728576660e-01 7.280766367912292480e-01 5.597926974296569824e-01 5.919243693351745605e-01 8.120708465576171875e-01 3.264021873474121094e-01 5.921129584312438965e-01 7.101953625679016113e-01 3.174573881551623344e-03 -1.369660198688507080e-01 8.286499977111816406e-01 2.227962203323841095e-02 5.029000639915466309e-01 2.876750230789184570e-01 6.338932514190673828e-01 4.939143955707550049e-01 9.643985629081726074e-01 8.273316621780395508e-01 8.012995123863220215e-01 -1.351045668125152588e-01 -1.792055666446685791e-01 6.485906839370727539e-01 9.890810251235961914e-01 5.748964548110961914e-01 9.759695529937744141e-01 2.358277291059494019e-01 6.358038783073425293e-01 4.147317260503768921e-02 8.484517037868499756e-02 7.748360633850097656e-01 1.106694340705871582e+00 9.266898632049560547e-01 -1.396394073963165283e-01 3.356828913092613220e-02 2.411187887191772461e-01 4.670253992080688477e-01 7.518387436866760254e-01 5.135473012924194336e-01 9.666123986244201660e-02 -6.930292397737503052e-02 -3.869055211544036865e-01 -3.071415722370147705e-01 7.048781216144561768e-02 5.361331105232238770e-01 6.228576302528381348e-01 -6.150058656930923462e-02 -4.709421992301940918e-01 2.111570239067077637e-01 3.847833871841430664e-01 7.836176455020904541e-02 -1.277316510677337646e-01 5.607413128018379211e-02 1.877790093421936035e-01 6.633811593055725098e-01 4.226551651954650879e-01 -3.413196206092834473e-01 2.250147610902786255e-02 -2.242841571569442749e-01 -2.794837355613708496e-01 -2.333820611238479614e-01 -3.036973178386688232e-01 7.428888231515884399e-02 -9.239122271537780762e-02 -2.726210951805114746e-01 -2.317370772361755371e-01 1.134163215756416321e-01 -1.735066324472427368e-01 -2.173904031515121460e-01 -3.320277631282806396e-01 -1.257667224854230881e-02 -4.549498856067657471e-02 -1.333097741007804871e-02 -7.589261233806610107e-02 -2.520711123943328857e-01 -4.709561765193939209e-01 -1.425230950117111206e-01 -9.456697106361389160e-02 -1.474309116601943970e-01 -1.670686602592468262e-01 1.221560756675899029e-03 8.534597605466842651e-02 -7.522181421518325806e-02 -1.609688848257064819e-01 -9.524170309305191040e-03 -2.236110121011734009e-01 -8.138692378997802734e-02 -5.521502494812011719e-01 -4.128890335559844971e-01 5.572142824530601501e-02 -9.395434707403182983e-02 -2.415638566017150879e-01 -1.523205190896987915e-01 -4.205827414989471436e-01 -9.553255140781402588e-02 -1.182540297508239746e+00 -3.757286369800567627e-01 1.055648326873779297e-01 3.847295641899108887e-01 1.788667589426040649e-01 -1.088976636528968811e-01 6.112704798579216003e-02 -2.183192968368530273e-01 1.624979376792907715e-01 -6.392860785126686096e-03 -2.383398115634918213e-01 -3.104691766202449799e-02 -1.714174896478652954e-01 -5.323330163955688477e-01 -5.112951397895812988e-01 -3.016514480113983154e-01 -2.783148288726806641e-01 -1.704245060682296753e-01 -5.893316864967346191e-02 -4.423893094062805176e-01 -2.243330478668212891e-01 -1.054505467414855957e+00 -6.947637796401977539e-01 -9.655613899230957031e-01 -6.021534800529479980e-01 -8.572012782096862793e-01 -3.733769655227661133e-01 -9.283635020256042480e-01 -1.159483075141906738e+00 -1.632354736328125000e+00 -1.371265530586242676e+00 -8.653947710990905762e-01 -5.007305741310119629e-01 -1.220600962638854980e+00 -6.088580563664436340e-02 3.441888093948364258e-01 -8.880365490913391113e-01 -7.352592349052429199e-01 -1.138279199600219727e+00 -1.141155004501342773e+00 -7.557579874992370605e-01 -1.140995979309082031e+00 -8.492522835731506348e-01 -9.641329944133758545e-02 -3.424490094184875488e-01 2.619162760674953461e-02 -1.703647077083587646e-01 -8.113591074943542480e-01 -8.252448439598083496e-01 -2.994739115238189697e-01 2.562246471643447876e-02 -7.754415869712829590e-01 -6.783889532089233398e-01 -1.053036093711853027e+00 -3.740024864673614502e-01 -8.022561073303222656e-01 -9.334219098091125488e-01 -5.215596556663513184e-01 -2.752133011817932129e-01 3.090125881135463715e-02 5.970668792724609375e-01 -9.828736782073974609e-01 9.573872387409210205e-02 -8.912210464477539062e-01 -9.661963582038879395e-01 -3.530411124229431152e-01 -2.715445160865783691e-01 1.050759702920913696e-01 -1.124234218150377274e-02 -5.977581143379211426e-01 1.150867700576782227e+00 4.547688066959381104e-01 -1.263962835073471069e-01 -5.246317982673645020e-01 -3.296364843845367432e-02 -6.934612989425659180e-01 -5.820876359939575195e-01 7.768086344003677368e-02 -3.934480547904968262e-01 3.008423745632171631e-01 -3.697399795055389404e-01 -1.172001436352729797e-01 4.721292108297348022e-02 6.987797468900680542e-02 -8.952037692070007324e-01 2.810417711734771729e-01 3.527505099773406982e-01 1.638062484562397003e-02 -4.865489602088928223e-01 -3.731219470500946045e-01 1.978423744440078735e-01 4.984854459762573242e-01 3.300766646862030029e-01 5.925632715225219727e-01 2.092871814966201782e-01 3.865029513835906982e-01 1.829585582017898560e-01 2.098520547151565552e-01 4.828000962734222412e-01 1.644968539476394653e-01 5.797307491302490234e-01 3.933715224266052246e-01 4.532337784767150879e-01 4.753155410289764404e-01 3.961344957351684570e-01 1.450081914663314819e-01 3.163207089528441429e-03 1.384346634149551392e-01 4.029185771942138672e-01 3.929342925548553467e-01 3.421519696712493896e-01 3.494549989700317383e-01 2.139444649219512939e-01 1.446455717086791992e-01 -4.596506059169769287e-01 -1.331318497657775879e+00 -1.808584034442901611e-01 1.019460111856460571e-01 8.640073239803314209e-02 -2.871841490268707275e-01 -6.906210780143737793e-01 -5.303275585174560547e-01 -2.361221313476562500e-01 -7.281426787376403809e-01 -4.983550310134887695e-01 7.498261332511901855e-02 -3.663391172885894775e-01 -6.292755901813507080e-02 -6.802136898040771484e-01 -5.838268399238586426e-01
